{
	"inputs": 784,
	"output_class": 10,
	"hidden_layers": [
		{
			"weight": [
				[
					-0.012660667041630038,
					-0.05826176192166625,
					0.012892920449485989,
					-0.014523647329756844,
					0.005965111313411343,
					-0.08240308127271466,
					0.07972858277584545,
					-0.12096589999554996,
					-0.02624773895478977,
					0.031403666756536885,
					0.055085609365749966,
					0.0037394722799504224,
					0.0067003539466221574,
					-0.03074799943849402,
					-0.009736799931058188,
					-0.06254485997393222,
					0.05298825099453838,
					-0.02042002876392589,
					-0.015018271856404612,
					-0.018301267320056207,
					-0.02134118562419524,
					-0.009242968728479932,
					-0.07001269401542619,
					-0.01922461024597149,
					-0.05846348915311774,
					-0.01697946817845216,
					0.0198588817976467,
					0.019324711876720996,
					0.024473424166992327,
					-0.007373759579439214,
					-0.0778539705553303,
					0.020922490960118126,
					-0.04893628584520832,
					-0.027118009649491993,
					0.055790511206250636,
					0.019729264065006642,
					-0.058895283329619914,
					-0.023800096651532654,
					-0.014707312407499373,
					-0.007484857371962035,
					0.053239908379112896,
					0.025199216934516343,
					0.08367597005449753,
					-0.06933227602104124,
					-0.0014250353611650142,
					0.028949249854405387,
					0.06853025321512313,
					0.021499144436048397,
					-0.0029785550549583785,
					0.04705157222831288,
					0.022077414572010793,
					0.02130100538486469,
					0.09003328979046159,
					-0.04718922758773278,
					-0.010011002048946721,
					0.09730439488574313,
					0.068981619772043,
					0.008185515541290413,
					0.029695024654180658,
					0.042833786062086286,
					-0.07007823269277788,
					0.016159056248242574,
					-0.06679194230238464,
					-0.04656605956149318,
					-0.11056701629612141,
					-0.05914807328782026,
					-0.014971725214280392,
					0.08816023246039784,
					-0.06796379118525779,
					-0.08388939206288969,
					-0.01824076278152868,
					-0.09384703457572664,
					-0.05501533369380826,
					-0.037102412862933386,
					-0.01577466129200648,
					0.054657683851026186,
					0.03236288221603038,
					0.005871398536779444,
					-0.00021225166058010936,
					-0.0010822178000070455,
					-0.008496358709967117,
					0.08142929422114757,
					-0.049575176510301626,
					0.01796974991256237,
					-0.06263111137406084,
					-0.0076834944136928325,
					0.03485570012522389,
					-0.009742202921285852,
					0.03634222397267131,
					-0.08622613983050567,
					-0.04454710356948005,
					-0.10814905324092192,
					-0.010047396820382392,
					-0.04914044187535407,
					-0.054267455308202886,
					-0.06214170231002406,
					0.005877333196595457,
					-0.0681548102192219,
					-0.10990649071944165,
					-0.057565989990306814,
					-0.021373261733093653,
					0.016802809384049096,
					0.07160154294054699,
					0.1452185265701989,
					-0.03534599750685251,
					-0.06873365081284659,
					-0.014612739424545643,
					0.015976585633059107,
					0.02858233295102388,
					0.0011640817340092782,
					-0.05093711486669905,
					0.06019911317579093,
					-0.04935245308250723,
					-0.11006746541506904,
					0.02194301828885619,
					-0.03394612606404266,
					-0.004852141912816913,
					0.07462026520310203,
					0.07973189518179984,
					0.01876486583805789,
					0.038228153835393505,
					0.00692004233763222,
					-0.012221827754616619,
					-0.13401200952635947,
					-0.041962835915026975,
					-0.005441159273364026,
					-0.11765040822492465,
					0.08309801218281196,
					-0.005901590777092132,
					-0.025207209676509936,
					-0.02389320019849486,
					0.01782938390675945,
					0.10156555300497389,
					0.029272640918690696,
					0.08873021257475651,
					-0.0037032077154224544,
					0.025614493497689184,
					0.009540847500886487,
					0.01303371673008675,
					-0.00676753883911628,
					-0.007340178608438004,
					0.006194078964777831,
					0.11132906867779642,
					-0.0039276704898467294,
					-0.012901576932707963,
					0.008211072590733672,
					0.06374651609663054,
					0.056712003065268676,
					0.27189070046294844,
					0.05463963303086611,
					0.03344142825485042,
					-0.24225168108418446,
					-0.3489210358161704,
					-0.3340799617416761,
					-0.21566933134349273,
					-0.24690211011991686,
					-0.09200659061075894,
					0.06122985878201194,
					0.05385459908437555,
					0.18937860014575625,
					0.09081406332640621,
					0.026321320930741063,
					0.10937925809286453,
					0.003246892834265608,
					0.07548895733921164,
					-0.0384772598880728,
					-0.06498267674589925,
					-0.007104233669479198,
					-0.11893323365498872,
					-0.038474477096405967,
					-0.08126167055761471,
					0.024233733807420353,
					0.025214765936749088,
					0.021706159597570215,
					0.1007756698094541,
					0.07533215973941264,
					0.08780283718781944,
					0.05038794731635163,
					-0.18343373321231962,
					-0.3596811924981596,
					-0.48004257397306277,
					-0.5038092240056485,
					-0.4050344490451601,
					-0.2217007381231068,
					-0.3011112035105224,
					0.00239420722788905,
					0.1297477185578709,
					0.07203638142347482,
					0.0496184928790428,
					0.012339485700415329,
					0.17027323476919842,
					0.048822761193702276,
					-0.013080249131045038,
					0.03931702958380801,
					0.10201605978460881,
					0.027849988662259007,
					-0.045122616186002815,
					0.05201670063375096,
					0.009557379508887222,
					0.017399781630070672,
					-0.03416432810725752,
					0.08707537647423576,
					0.11505109918858607,
					0.07373838527960468,
					0.006197006463923307,
					0.10030008229945478,
					-0.16475946165020272,
					-0.3965761922744882,
					-0.353083299659533,
					-0.5749412565788854,
					-0.22935707326845398,
					-0.07407550927011777,
					-0.2793556899528215,
					-0.048543845678772644,
					-0.09052209179868922,
					-0.06690287257109481,
					-0.12126534177224625,
					-0.17133295132332674,
					-0.0646660435676231,
					0.05486594633645808,
					0.10446216320116658,
					0.10793558213855181,
					0.04698952938035105,
					0.04586705538177059,
					0.04046737571221337,
					-0.044167978245906604,
					0.020664324912210697,
					-0.010434320517742686,
					0.24531455928747692,
					0.14423421050769988,
					0.19333389088214661,
					0.03751555626108746,
					-0.19785762033217424,
					-0.020911483513686983,
					-0.02663313670584533,
					-0.17034903705997076,
					-0.3642421497378718,
					-0.6691053753427478,
					-0.41388950161089794,
					-0.1508314992541805,
					-0.10242958221029427,
					-0.11840735927427065,
					-0.13362098844021425,
					-0.35682611895752325,
					-0.057611455394138054,
					0.00029939466024433726,
					-0.02883110580089334,
					-0.005380226352943717,
					0.12537008723940207,
					-0.0036104673895001388,
					0.009256187237755153,
					0.019744580928152625,
					0.0048952873935336925,
					-0.051270573387158236,
					-0.05359093414163284,
					-0.03140086889580654,
					0.13869262607999552,
					0.24741081868593792,
					0.09675695762510476,
					0.07791791515166067,
					0.20498884685133253,
					0.21404965549912752,
					0.18210116168197643,
					-0.04263375975060184,
					-0.19691940801186297,
					-0.6409401583803307,
					-0.35107075126402,
					-0.29445069336469726,
					-0.1990778144406301,
					-0.07447227933546934,
					-0.11803846225033751,
					-0.1593176951728636,
					0.06598912590216625,
					0.11261330770190657,
					0.059921443648829814,
					-0.025565043520639236,
					0.03571794810569191,
					0.015146317397571423,
					-0.008602960124013969,
					-0.013153018057254098,
					0.015757429366084617,
					-0.008605495688217944,
					-0.08221712068459804,
					0.08091948812378327,
					0.010556547723409597,
					0.018789969813689134,
					0.025465538008780177,
					0.07815680033527743,
					0.20748855649249254,
					0.24910378371195604,
					0.16784320335621444,
					0.08181384490144514,
					-0.08462532512672527,
					-0.3649301287857106,
					-0.2642119830886851,
					-0.00960560586846702,
					0.038595456953692875,
					-0.06812187877928941,
					-0.01621930568030596,
					0.03502707680199911,
					0.03678905909109878,
					0.12419290266760796,
					-0.007939230504489466,
					-0.017731396206173547,
					0.05396035293887745,
					0.0882793880725988,
					0.006468652469428438,
					0.082255393445989,
					0.05818551577507283,
					0.0038465472900520545,
					0.011432206443952903,
					-0.06709335102543645,
					0.11407309285794681,
					0.0901153412229545,
					0.0634440107971802,
					0.07978599885971693,
					0.16941208324418372,
					0.473191067552554,
					0.3076657875388829,
					0.25808307738158315,
					0.06530064285961484,
					0.0999940152328051,
					0.10537975790448084,
					0.2661464065231116,
					0.05871423137047804,
					-0.04216255190516879,
					0.04354603303738273,
					0.1156900877192063,
					0.164297421465094,
					0.03954856069843479,
					0.014642181129490613,
					0.03276479294491755,
					0.01260476405558342,
					0.07472693178154981,
					-0.03793279145696257,
					0.0219977683066016,
					0.00733901425902923,
					-0.013989646693225385,
					0.05774797122550604,
					0.018231295278858226,
					0.050488729200218914,
					0.008447473380395741,
					-0.0618419775845786,
					0.0797759237458143,
					0.2957981553483492,
					0.34902454426115476,
					0.15546358518872433,
					0.3101437905723481,
					0.28731049304395145,
					0.22516597760280474,
					0.22337212603204265,
					0.502762488877038,
					0.23032903566263507,
					0.11209892783449776,
					0.08437250991012524,
					0.23308200937691897,
					0.23712323894805462,
					0.10410453051051782,
					0.08948253841234892,
					0.041299419768346335,
					-0.0009331584817416236,
					-0.028572741020910095,
					0.008812245243182347,
					0.050639795277531104,
					-0.0751820620647931,
					0.04160423842508194,
					-0.0634664275495761,
					0.05818705508306518,
					0.008864907082154962,
					-0.03512250858551276,
					-0.13640905319954552,
					0.06334358474105832,
					0.10322814903625248,
					0.1900701770214082,
					0.20868238991081403,
					0.14705935779785786,
					0.006650501308572138,
					0.09041036069174634,
					0.202240786902195,
					0.2517448501683846,
					0.12982393119842453,
					0.15040289771013815,
					0.08984712396271567,
					0.10366590267878761,
					0.2274610859379468,
					0.04756599723964397,
					0.09155121423863628,
					0.005422651254740752,
					0.008517107797447796,
					0.0019352627428584504,
					-0.04227575861373301,
					-0.11957015663599324,
					-0.03131930591913461,
					0.0012550492486382383,
					-0.08685912950600538,
					0.04978700315339607,
					-0.02127809371742373,
					-0.07277623032098005,
					-0.13631886902222218,
					-0.1257417753978037,
					-0.05396841509279624,
					-0.2192799254674642,
					-0.07313740955594944,
					-0.12124266564600879,
					-0.06453578040216804,
					0.14803550765651619,
					0.18528519232171012,
					0.22284809279387316,
					0.05960388994944891,
					0.027194295300571047,
					-0.06697867262147403,
					0.09853606284863915,
					0.06692874334320548,
					0.004116143672520247,
					0.09531498035593561,
					0.12068221310942408,
					-0.07755765107080118,
					0.0658038743717621,
					-0.012823676205996807,
					-0.01266623828875013,
					0.06231559532795754,
					0.07488471629427072,
					0.005459186054302011,
					0.06362198196067266,
					0.0456290638558183,
					-0.05816261776105041,
					-0.1100390797362927,
					-0.08601030703230245,
					0.013327490031643966,
					-0.24043816110806498,
					-0.2730841826899256,
					-0.0661885230182205,
					-0.005525176346134553,
					0.08789290415137145,
					0.14909749615426643,
					0.057680097404253575,
					-0.2775385895909464,
					-0.21126958484735545,
					-0.14575442976124758,
					0.022104457600960848,
					0.09306710331794964,
					0.0384351709008531,
					0.03306834876736306,
					0.011642142847435874,
					-0.08690009190689167,
					-0.04829445954654371,
					0.07671366703322652,
					0.01760701428236769,
					-0.022851532535006013,
					-0.03141407320469405,
					0.04699835410153354,
					0.17340179849099313,
					0.0919092494621957,
					-0.13963920753714135,
					-0.014178366127447425,
					-0.09594150203591058,
					-0.06073753337468582,
					-0.08076442773685885,
					-0.11647481000765116,
					0.01733422974525145,
					0.09358343468676297,
					0.13238068370119782,
					0.20052501415866594,
					0.02128283144257023,
					-0.14734662167379187,
					-0.12978606807910945,
					-0.19254002129310063,
					-0.11911605641982309,
					-0.03151612448707039,
					0.21281217225815077,
					0.14399991392707814,
					-0.034864437658862976,
					-0.028158649576076753,
					-0.10595698410274502,
					0.06742660305328281,
					0.05862395123285641,
					0.03328670343736932,
					0.005635872229832718,
					0.011911554392507214,
					0.007263650410180003,
					0.12544195140011802,
					-0.12098457383644862,
					-0.0913096746830821,
					-0.11487118983634653,
					-0.041820781932790464,
					-0.14187643183136367,
					-0.05634220378476488,
					0.002889927200632643,
					-0.007660509027966776,
					0.02253698666687462,
					-0.016372337377319926,
					-0.02332109663262294,
					-0.02100980408217689,
					-0.04021051662577906,
					-0.06137190106018715,
					-0.24087363102103457,
					-0.05330704406863569,
					0.004395745105732994,
					0.04275405573176852,
					0.0038878557142852637,
					-0.10411578000334723,
					0.024177415572226135,
					-0.004549987807481375,
					-0.05843793986574399,
					-0.0759703469118213,
					-0.08534296872983525,
					-0.002073822004604177,
					0.010940472095053753,
					-0.04405615656277292,
					-0.07917992260518564,
					-0.08690719997381553,
					-0.018152572569621696,
					-0.0367989347851664,
					-0.12971188352169227,
					-0.2028536265150306,
					-0.041166607109991316,
					-0.06136226197786105,
					-0.08424400859286583,
					-0.1589133014314461,
					0.02157966112896797,
					0.03920708637651936,
					0.031000339120316116,
					0.04489022675231785,
					-0.1541075686333127,
					-0.04692863736729731,
					0.1097127731021981,
					-0.009643454263647726,
					-0.12590438744440033,
					-0.1137426841209457,
					-0.01971718968824588,
					0.09481675775323897,
					-0.0025593666730451287,
					0.02702846574282174,
					-0.07931671762733113,
					-0.021677589271130792,
					0.015907818960039302,
					-0.08167906518006848,
					-0.1531839842272468,
					-0.1192847649552647,
					-0.12739368386399905,
					0.04304069645668847,
					-0.020857894923458496,
					-0.162935486214719,
					-0.16504704024532674,
					-0.127895842345369,
					0.027204844372685822,
					-0.09854275624536585,
					-0.037347461662235855,
					0.10047300098397023,
					0.0462316719758943,
					0.14946759646512572,
					-0.06008314064626298,
					-0.10818640616774941,
					-0.12371277795042973,
					-0.18505478228690758,
					-0.142382642470215,
					-0.05867907418479925,
					-0.05649326061854085,
					0.02343405066229723,
					0.033473834997783204,
					-0.051029498617135995,
					-0.017617347360379496,
					0.00487972850907941,
					0.021200981489521913,
					-0.08165053416566043,
					-0.03400359098635062,
					-0.10628468283920031,
					-0.022914738030543082,
					-0.05120124051976422,
					-0.16805510957984707,
					-0.11148426231470632,
					-0.20233168514263003,
					-0.127345733658013,
					0.042739197910098316,
					-0.09012269143036473,
					-0.10224433217636417,
					-0.015882108986968548,
					0.13801752892567878,
					0.0773854800839542,
					-0.05433019480063086,
					0.07552177471823382,
					-0.03414695079895196,
					-0.13393545322695785,
					-0.0856521404503836,
					-0.04334018835993058,
					0.017819108918947283,
					0.041610221529592595,
					-0.079726741733281,
					-0.11025854920630278,
					-0.02755731392189204,
					-0.032709395484301226,
					-0.10704896624703021,
					-0.026630293616012754,
					-0.07618293289897034,
					-0.017269686293161814,
					-0.0908939330113845,
					0.018938632280139128,
					-0.04981150754978985,
					-0.15184593156675913,
					-0.09866654517205578,
					-0.023700724809244192,
					0.02458973095969478,
					-0.2039157966312819,
					-0.21925031586630422,
					-0.1158423101539843,
					0.0326666381171404,
					0.06884944645918055,
					0.06425652650569745,
					-0.05636209334823975,
					0.04672209647352757,
					-0.058476660842901436,
					-0.06303546451711485,
					-0.06612494954125224,
					-0.06612327680169612,
					-0.016983097325322428,
					-0.02044580008509068,
					-0.03938972508664712,
					-0.08910332036616408,
					-0.04636611999795638,
					-0.014526416113871914,
					-0.08675510149343227,
					0.006270202579583525,
					0.07844129048201127,
					0.007693501330042431,
					-0.06626921510371239,
					-0.017174045757887745,
					-0.13793777264295545,
					-0.041125061495763025,
					0.09428654679658156,
					-0.0952756466239581,
					-0.082168823694062,
					-0.1914935354267799,
					-0.14828121770643504,
					-0.06966982981250858,
					0.03398184654907133,
					0.22835392242950925,
					0.13386159150695337,
					0.0777120392695175,
					-0.048571042702214,
					0.013960647567565961,
					0.05399777582385011,
					0.055261048394871316,
					-0.002474220451276823,
					0.05658952358381247,
					0.046888249575676756,
					-0.06689705991103252,
					0.08665154040428022,
					-0.029820803808506692,
					0.03530787790435607,
					-0.03876743128511747,
					-0.01727905651992959,
					0.0721536240413666,
					-0.05607070298204411,
					-0.04263633397339732,
					-0.12951614292345554,
					-0.022913064284120557,
					-0.061627401778602965,
					0.011098633392303773,
					-0.07718961977227065,
					-0.04594053659731788,
					-0.10599189070223489,
					0.12357550474530306,
					0.06561328433965799,
					0.15256391280083145,
					0.07307780834865205,
					0.006494189608954386,
					-0.010625017304281408,
					-0.05460897990524555,
					-0.01723954424421044,
					0.04914815289321626,
					0.027071282821543974,
					0.0402441922881832,
					-0.044163424879144327,
					0.004398266225465847,
					-0.05617470607072332,
					0.06899551915339276,
					0.001979082158092026,
					-0.041894510146509925,
					-0.004903517577662904,
					-0.09565515591455154,
					-0.08996079978162362,
					-0.015183047831026121,
					-0.06827228942540137,
					0.0527124004768991,
					-0.07029696224872277,
					0.05261375222470753,
					-0.10441931602666477,
					-0.1920907358236454,
					-0.0007407378977272943,
					0.021231599577308812,
					0.0941002877981342,
					0.010449924972987825,
					-0.06836422911907494,
					-0.057131169749015734,
					0.06865764862172936,
					-0.04754404894898157,
					0.06019341113485544,
					0.013125753708375694,
					0.03881699290939487,
					-0.037886718741899146,
					0.03250596531112758,
					0.02448192103608683,
					0.029171136757277914,
					-0.015342271908350018,
					-0.019121212555257748,
					0.003920735230463383,
					-0.06615996850355452,
					-0.004664694152268943,
					0.03316165825659836,
					-0.005709350319537785,
					0.0683849185541782,
					0.029212518433215273,
					-0.06204361154662067,
					0.040133145786217746,
					-0.05789460373310519,
					-0.014569869122213044,
					-0.15634246739002092,
					0.15777487712658128,
					0.15276263559559378,
					-0.07404283002279587,
					-0.01590970957693135,
					-0.022494148701753557,
					0.10199227126622838,
					0.08365455789834965,
					-0.06218854723010772,
					0.03843420509913259,
					0.009340013289131614,
					-0.09780665593634986,
					-0.017943737816664286,
					0.029876154296350394,
					-0.04354108286668153,
					0.021088739371028047,
					0.06876976819835637,
					0.04667620205866289,
					0.04998392240902635,
					0.007018282223020061,
					0.002924410344594911,
					-0.09631388124788422,
					-0.027539822499753456,
					0.060000332992042306,
					-0.0037664843159802212,
					0.016950089294617058,
					-0.10500009280003397,
					-0.057419468845832634,
					-0.06907267112659489,
					-0.12176666313805554,
					-0.027705916847931254,
					-0.05792012058966272,
					-0.11779030452861457,
					0.006270804852626987,
					0.07835028668444602,
					0.03497508850440266,
					0.04111342541588747,
					0.002094031338261505,
					-0.00578492409096311,
					0.04818981240335278,
					-0.008040090782389054,
					-0.05222011256012085,
					-0.05866713422230442,
					-0.03886896901931525,
					-0.002889666316671228,
					0.018419674411175785,
					-0.029605616392620448,
					-0.011019244345957841,
					0.041713933506066045,
					0.03763853287566228,
					-0.060170745097145456,
					-0.04086045557248995,
					0.00015430407973955694,
					0.0033635195292684474,
					-0.00970700778511336,
					-0.034098075141354406,
					-0.00039469246376267104,
					0.08412230283998542,
					-0.06923764938469568,
					-0.02086598515895687,
					-0.006901128722595304,
					0.048192521843977966,
					0.032128412438453345,
					-0.01616175909091565,
					0.031247825631848435,
					-0.0017337872465264198,
					0.10916741314196673,
					-0.05978212177758608
				],
				[
					-0.029392615293140172,
					0.018884216198165663,
					0.0032236592762240977,
					-0.08025146978699244,
					0.1265357689195282,
					-0.03765856690262557,
					-0.10656709567974418,
					-0.04313453835789372,
					0.012276396509561945,
					-0.08442054360962922,
					0.08710754902544601,
					-0.014184859148254195,
					0.1372083265043642,
					-0.045081493497025366,
					-0.09285002226005155,
					-0.00317779365310268,
					-0.03304977044429554,
					-0.01805225497360927,
					-0.006177863243161154,
					0.08150143457018066,
					0.062200700434820004,
					-0.008768081531832896,
					0.04159625770158175,
					0.03632731179014051,
					-0.0003587210476208277,
					-0.0520969221364589,
					0.03885900647856112,
					-0.03038529119716716,
					0.009900075869351252,
					0.02066263289117065,
					0.0645860759641708,
					-0.03249391373049783,
					-0.002149040831936569,
					0.04338702927822309,
					-0.07721118554991654,
					0.007067192427986124,
					0.00708717601623185,
					-0.0024890004718560203,
					-0.002214210345732975,
					-0.04807230709009649,
					0.07301477820265526,
					-0.025301416856799198,
					0.0857377294004777,
					0.08916306989370333,
					-0.08285839437244746,
					-0.09118777984306241,
					-0.014609718938586697,
					-0.009859653443515637,
					0.03547113765207078,
					-0.03275064587963573,
					-0.0020974490162840396,
					0.0007991064841432465,
					-0.03676158712038445,
					0.03019076479739709,
					-0.1186250576414233,
					0.015836280389537067,
					-0.03306899009609698,
					-0.0942979332344691,
					-0.0707699505104801,
					-0.1208800190936461,
					-0.01284728789150297,
					0.14809552366419243,
					-0.006139819966287059,
					0.0029650468820954386,
					0.08525358478425082,
					0.019024496305566997,
					0.05156602836873466,
					0.0673626536982677,
					-0.021417155359103286,
					-0.14868373926558642,
					0.0036502339793323874,
					0.08580620029238907,
					0.06375117639316809,
					-0.04707097718904008,
					0.04762858845626048,
					0.13768009033523154,
					0.0871025155843833,
					0.06312373649847601,
					0.08242804139775926,
					-0.0015072632794418067,
					-0.032937730068680705,
					0.02212195949749954,
					0.008942810263564928,
					-0.07589031718883926,
					-0.05061228204994406,
					0.04744224560057706,
					0.03990089667575385,
					0.005152776554624669,
					0.03489006078885251,
					0.038717442842674685,
					-0.007872586172356809,
					0.017924782816554997,
					-0.04029121422514898,
					0.02252883292992226,
					-0.09071521883977944,
					-0.08245669916422617,
					-0.10193728102616127,
					-0.04098254561753574,
					-0.008924904803567757,
					-0.020795439313312125,
					-0.11454167730441285,
					-0.028968501677521945,
					0.029926501021755515,
					-0.03557599978198741,
					0.046394406627699884,
					0.06671912725633466,
					0.03606247932095306,
					0.017761236828852868,
					-0.028536820337316086,
					-0.02375968172225907,
					0.007203929936306654,
					-0.02516664992516136,
					-0.005250182385893009,
					0.05392464412177612,
					0.04946014845872018,
					-0.023652513486680394,
					0.03488843009832744,
					0.03399542780984734,
					-0.030029370092070608,
					0.020191237984771772,
					-0.17301422703889088,
					-0.027921559980943686,
					-0.03462883327030627,
					-0.06336458593794043,
					-0.14310904305205996,
					-0.2172382563954986,
					-0.3192431232361993,
					-0.30980565971062635,
					-0.06359904034166892,
					0.19142701823921796,
					-0.009019117508090056,
					-0.02275310255338191,
					-0.0677377784490181,
					-0.11978130258365523,
					-0.21161618036824872,
					0.04509797673166733,
					0.0916004983597878,
					0.05394990899347596,
					-0.03217941372316196,
					-0.0016717545830765928,
					-0.0070843568799714915,
					0.04582656289966054,
					-0.04155141147562839,
					0.005674188845791069,
					-0.09469560729702377,
					-0.025135610111909696,
					-0.05849528619203636,
					-0.12810709291459685,
					-0.14039876183802427,
					-0.1891379454783754,
					-0.3045427325382612,
					-0.041653342482985106,
					-0.1607261003195855,
					-0.21111126207367345,
					-0.022596727386795173,
					-0.15944941172412894,
					0.0457348898442164,
					0.0025166900336791756,
					-0.054162555788717065,
					0.11115416886064615,
					0.10409550880735809,
					-0.028824782678237144,
					-0.05142037257429064,
					0.08783842156582158,
					0.05229210220756141,
					-0.02114541502129342,
					0.03829440918336684,
					0.0320095075082432,
					0.05211568736457493,
					-0.015905650114508202,
					0.05218818975353354,
					0.017607700578404623,
					-0.10405903002594202,
					-0.049688540427343,
					-0.07297370158223213,
					-0.07058851575573946,
					-0.17840111084910207,
					-0.32047474514922597,
					-0.2664564204872225,
					-0.01597243232336669,
					-0.0870786274328504,
					0.0050264189548280295,
					-0.03894425923385347,
					-0.21586606094845334,
					-0.2510667626383655,
					-0.15270669053982494,
					-0.07921713314869891,
					-0.03402231637422009,
					-0.004300281368642313,
					-0.06507714691356926,
					0.049025410329692744,
					0.16194336163770004,
					0.07732459239957995,
					0.1241131390794118,
					0.1484527664733565,
					0.028110727472684675,
					-0.028317331899907018,
					0.02618557725626383,
					-0.09945546464426404,
					-0.11220278024165728,
					-0.029181542523936344,
					-0.03578564598015766,
					0.018832779746798443,
					0.052236267654739245,
					-0.0737490353032955,
					0.015412170919809624,
					-0.13848946135160264,
					-0.031143786327373153,
					-0.01486248972252007,
					0.203424388656222,
					0.13860816416602215,
					0.05218932506564091,
					0.0027414388711037014,
					-0.09664158356620182,
					-0.01349951684656605,
					0.05131085118376864,
					0.1748822042926774,
					0.2894189527710057,
					0.39703355577918986,
					0.3402818926830625,
					0.049437778401838724,
					0.12509544115169566,
					0.14388252101669344,
					-0.026355851841526303,
					-0.012339357313201104,
					0.02433033138011706,
					-0.1055312242790362,
					-0.01737660654191004,
					-0.18023161203394303,
					-0.1675005260383538,
					0.1280927210745376,
					0.2190059578685046,
					0.18169916898418953,
					0.07198167060945855,
					-0.06701613694066057,
					-0.031906571229367825,
					0.20963575631713702,
					-0.03837357374564342,
					0.11103627225884628,
					0.38732273532114514,
					0.26924705541006605,
					0.1998977614776353,
					0.44328104666268164,
					0.5691669078374326,
					0.39251606448673176,
					0.5516125434407468,
					0.5148085663451051,
					0.4991838877755979,
					0.3396525217930022,
					0.11125438560893493,
					-0.016111267747235983,
					0.02029351250234002,
					0.010153972230649892,
					0.024138976531001104,
					0.010549767187610925,
					0.05574673794194704,
					-0.08783278230628429,
					-0.04571408738077604,
					0.15181304814536725,
					0.0743344815417059,
					0.04265650460278998,
					0.13126698488895722,
					-0.16745836054727906,
					-0.022362592204497884,
					-0.22429222548134622,
					-0.19384481091346506,
					0.017969525689958715,
					0.20168208827043435,
					0.3233646270198878,
					0.3067626875097549,
					0.5249736181792317,
					0.26756242845040196,
					0.033745124003473806,
					0.03698825036704477,
					0.0812920892321109,
					-0.04002141395675501,
					0.3529922164880497,
					0.10160293635847978,
					0.13863078263391207,
					-0.07849963416867686,
					-0.015685783690713426,
					0.06318861900883688,
					0.04324665160016322,
					0.018086234330763645,
					-0.013776843794810104,
					-0.054853224168693794,
					-0.08063701948455539,
					0.028738036086831134,
					0.02166346994116297,
					0.2298991705844496,
					0.23549449178582688,
					0.01910806252318983,
					-0.0399704562979075,
					-0.26677695041044136,
					-0.2898051006519212,
					-0.413697654019964,
					-0.5867105666568071,
					-0.5902875858459573,
					-0.2693593218622384,
					-0.2702142338762029,
					-0.4401253968173008,
					-0.42409339173676297,
					-0.432059067401779,
					-0.13215824816838934,
					0.09006161891169402,
					0.07514944041975359,
					0.01743453474285825,
					-0.07277550607063189,
					-0.05755098926794748,
					-0.04926425267753596,
					-0.033625032439130176,
					0.01651792197017181,
					-0.011639830883438026,
					0.011877630782554757,
					-0.07435792092879336,
					-0.03825820562108072,
					-0.11784551408631813,
					-0.060434990357513145,
					0.09759410107534533,
					0.13693389844294246,
					0.022422518209825132,
					-0.21191906308030922,
					-0.27730928535709626,
					-0.5222660307183825,
					-0.7965491003466063,
					-0.7863982145631718,
					-0.645270228220134,
					-0.5908019535625452,
					-0.6313027925906151,
					-0.45504568498149706,
					-0.4508269777417973,
					-0.2487670265260256,
					-0.10270734660325696,
					-0.013102025641763073,
					-0.016763044210833297,
					0.030125194693338922,
					-0.04182692759739934,
					0.0819869235468094,
					0.0026885392727387563,
					0.05909666241690754,
					-0.06498072634482864,
					-0.09539377673278752,
					0.025377213709904756,
					0.1608052812554554,
					-0.13183726567066925,
					-0.18745441006287872,
					-0.02480281009000708,
					0.18029204532820353,
					0.18130397487797326,
					0.06799627246450457,
					-0.3448078038982146,
					-0.38143158107689973,
					-0.3284865798849194,
					-0.7213772852620072,
					-0.7238440723778675,
					-0.9561113299008188,
					-0.6696448214827869,
					-0.4558637296708979,
					-0.35952279280238825,
					-0.2545134849565916,
					-0.25377206709787187,
					-0.08342972580365786,
					0.024539118896582876,
					0.019550556385111578,
					-0.015366043075883134,
					-0.10144443131795217,
					0.08180835124284308,
					0.016375174968210303,
					0.006180868310835311,
					0.01596931364941592,
					0.15957600131551467,
					0.032229366986280296,
					-0.05040885535586087,
					-0.2365405366532889,
					-0.16146876668201945,
					0.12595562119796755,
					0.19200609078195957,
					0.10471971467411532,
					-0.07835585536756272,
					0.025471563618597017,
					-0.08387762524803043,
					-0.3581989792738325,
					-0.33787358290687836,
					-0.3355595681329237,
					-0.18348401348155813,
					-0.3356055878796825,
					-0.33720267047084906,
					-0.3350197362258734,
					-0.16492177134153044,
					-0.04251063844496423,
					-0.04073271360391265,
					0.03462737692126495,
					0.0805832670677995,
					-0.013111038731818708,
					-0.027115252366424022,
					-0.08561258379179437,
					0.025483249384905766,
					0.06155136738373557,
					-0.002288561685898955,
					-0.017087654131813037,
					-0.2049896172109524,
					-0.1047608644611073,
					-0.03150489351525471,
					0.25597226578474197,
					0.10412185028638385,
					-0.11902310593114007,
					0.1446852460623736,
					0.19965836583320148,
					0.19805216429674719,
					-0.08422282397087255,
					-0.0669587297233988,
					0.005854561068882256,
					0.11294697529413147,
					-0.1650245834513313,
					-0.19412880088800225,
					-0.31886841994000453,
					-0.12751527925722053,
					-0.1340171051645932,
					-0.04813367702299545,
					0.0187591013495492,
					0.0008241010813691147,
					-0.02103491533955562,
					-0.030982288782034174,
					-0.013501788404951528,
					0.1286262964572354,
					-0.022902004459914846,
					0.028059739138571634,
					0.01714188570587444,
					-0.10760740289582933,
					-0.002833980776572647,
					0.07623123164631354,
					-0.06798289665544328,
					0.05193594012145954,
					0.011109268197093913,
					0.0008736388432946476,
					-0.295309079768763,
					-0.024931661297762465,
					0.0029033625414911627,
					0.10378157697244834,
					-0.11924569475593355,
					0.1633718301507262,
					-0.16235224275071097,
					-0.31253150807438457,
					-0.24929506897234743,
					-0.01580027010433467,
					0.030571771194659623,
					-0.03445337024670259,
					-0.04697102573332713,
					0.022096123669263213,
					-0.0124817939945081,
					0.025936041104728372,
					0.00865368827908393,
					-0.022190779799004558,
					-0.00009976738329239527,
					-0.01798600546096234,
					-0.05655194945356858,
					-0.06540212928109111,
					0.02124340262829816,
					0.026736065093186538,
					-0.379425625255497,
					-0.4369419193363982,
					-0.11216182979864465,
					0.15405443544854605,
					-0.12347274930552551,
					-0.01601189380902615,
					0.018134392099950433,
					0.014718350442854074,
					-0.08270565100572609,
					0.07404141820641695,
					-0.08052963643347055,
					-0.16014512192365665,
					-0.1859070489178835,
					-0.09372003437956575,
					-0.03145474497409223,
					0.0076849303021105896,
					-0.04965016858811228,
					0.014062908070518005,
					-0.054687565193362965,
					0.05513419455985205,
					-0.005732604319250933,
					-0.002956520591769327,
					0.16090744210256425,
					0.10773661961656576,
					0.013155239415074564,
					0.048181757272124016,
					-0.020143127137049407,
					0.2631548940489914,
					-0.2806163078377496,
					-0.20142358381661965,
					-0.010441452687097313,
					0.23657766893051857,
					0.0664242996126507,
					0.06984203123964923,
					0.03772931063840356,
					0.09694058491237771,
					0.0801592278898943,
					0.1219976818931074,
					-0.07667434722170739,
					-0.11861313031077644,
					-0.2140948395203751,
					0.00022365630519965675,
					0.07364395388194057,
					0.044408608022235126,
					-0.03901603227690115,
					0.029440341726129273,
					-0.024929187743456177,
					0.01226449142201564,
					-0.013713202451647998,
					-0.1786584118602384,
					0.02749648931263642,
					0.2600627628929262,
					0.23425631331657273,
					0.05355007404361618,
					-0.008238366695526831,
					-0.16455252215012292,
					-0.17480495601252963,
					0.25036159818148357,
					0.374304823200612,
					0.17723047102647202,
					0.05011408818678641,
					0.032111939858813845,
					0.0988676382516433,
					0.12574428136603233,
					0.023396030006094623,
					0.14338924485287335,
					-0.03847945872039238,
					-0.2082556597243308,
					-0.14787591859830393,
					-0.09221606454562738,
					-0.023006207032339382,
					-0.06762549947870321,
					-0.0015208357065834832,
					0.04569490249699664,
					0.0013059279237097275,
					0.010456796242664972,
					-0.03249294952137929,
					-0.1808349580023286,
					-0.004007380387808732,
					0.1712091967006877,
					0.023328212502264092,
					0.03230989099799372,
					-0.06573682516656822,
					-0.02793242920873221,
					0.13229818539253765,
					0.14629898984645143,
					0.240756735855501,
					0.16538117246488687,
					0.12454027086120513,
					0.18461941594688325,
					0.28157507538933524,
					0.14629757469917895,
					0.0507022024623092,
					0.1835739255267977,
					-0.07660387576115811,
					-0.12040990818319436,
					0.06175362306272933,
					-0.1107015134074559,
					-0.03807622498483986,
					0.11499694775608925,
					-0.007962465991919429,
					0.0035449436158122823,
					0.04570875948613083,
					-0.038058445749696475,
					-0.08644741235012618,
					-0.162809941833085,
					-0.06315281018802066,
					0.13471561821905853,
					-0.18760962838091022,
					-0.05376421003973045,
					-0.15225064962537055,
					0.23736936240178028,
					0.17189549853723696,
					0.13103590194187745,
					0.14454166431148,
					0.0012426987271004556,
					-0.04517342898373728,
					0.06517798026107402,
					0.1438251614142992,
					0.1483113744066555,
					0.3023568015604904,
					0.11720454562038937,
					-0.11620592175659257,
					-0.09074233186644012,
					0.10621111184449879,
					0.0039690171008750505,
					-0.046793445966926396,
					0.039501014786942665,
					0.030835966011299586,
					-0.003983362426324439,
					-0.022257941940952024,
					-0.09358894283586028,
					-0.07883863944332307,
					-0.07390219678928522,
					-0.14679047977974452,
					-0.04604130752570683,
					-0.17320413767781595,
					-0.058275010899072735,
					0.25655560257142573,
					-0.05797700066529887,
					0.020353957145191705,
					-0.015324929066907512,
					0.23631049009483715,
					0.2263577397569481,
					0.22660968414394586,
					0.0013249943699957932,
					0.24588678460016625,
					0.2529549251638916,
					0.1443047181856161,
					0.16132775657586135,
					-0.08183295428085575,
					-0.03547605555704724,
					-0.02862759937528771,
					-0.03612198569346637,
					-0.035830201857678656,
					-0.02830548725361751,
					-0.044024604443136446,
					0.03445635235718823,
					0.09782374778171271,
					-0.0025788325087157267,
					0.04883258578386869,
					0.05685254353242932,
					-0.009384627221602992,
					-0.0374538910760593,
					-0.08068704607480692,
					0.004067669460760104,
					0.2630229799647714,
					0.07945411638994705,
					0.07441878121362512,
					0.14554915806727436,
					-0.007558380624733592,
					0.23182379013205384,
					0.30836796677456557,
					0.08638185681031277,
					0.30695462502857623,
					0.08963586325401393,
					-0.0853228334909803,
					0.07186522443428763,
					-0.0755045831361731,
					-0.03570245117849709,
					-0.052622814367784224,
					-0.06575687102412045,
					-0.009417747247664143,
					-0.00031647871339870006,
					0.07937010921993241,
					0.0396563732626255,
					-0.07094955673705002,
					0.12593454430876982,
					-0.007558758690750639,
					0.010069462790425,
					0.1075110480057501,
					0.035162108203571574,
					-0.19093526398426958,
					-0.07060706072414528,
					-0.029486725014623717,
					0.017054519542624807,
					0.03138644180959949,
					0.1604756553155391,
					0.1369904437340178,
					0.10291882797452098,
					0.1453539027550225,
					0.06658220672910785,
					-0.05170450238145296,
					0.08677224117319131,
					-0.004612094083680894,
					0.17038595831925765,
					0.06364050903278609,
					0.062203940305057256,
					-0.10208395490741944,
					-0.01772192886900071,
					0.00022798089802890953,
					-0.01248351387839419,
					0.007507521045885819,
					0.0409139283585148,
					-0.07709823603314644,
					0.011421305617502443,
					0.06657947590322606,
					-0.014220707319658219,
					-0.13439257811090452,
					-0.0004947232937657833,
					-0.04941435403799569,
					-0.05838608011102108,
					-0.16909610305041356,
					-0.26963593567288663,
					-0.003585184181473402,
					0.28263189047787385,
					0.2800003792376458,
					0.024018337693157293,
					0.24316321190530746,
					0.11474587169498754,
					-0.04577154230480795,
					0.0898110768310596,
					-0.08361399257932767,
					0.10445663957095089,
					0.04581927518549671,
					-0.04008818395577997,
					-0.014234340596680477,
					0.0763154542051578,
					0.07669644970522366,
					-0.07599464316002964,
					0.012224315658708813,
					-0.002842492468789998,
					-0.06025455401446056,
					0.05432070925253836,
					-0.005156535211473445,
					-0.027728808164406045,
					-0.07772402656955016,
					-0.0007024757572052554,
					-0.03628997173864981,
					-0.21806321617334712,
					-0.13309456409135692,
					-0.29437579302488454,
					-0.22273034042810508,
					0.02572025290010413,
					-0.025012632570705795,
					-0.24324266142487022,
					0.008568800553426296,
					0.07190618989036293,
					0.13353629584001458,
					0.06434804470593894,
					-0.013998075815206937,
					0.01871101255416548,
					0.041690135166392965,
					0.010375678772935918,
					-0.037739827487677444,
					0.026434148982998604,
					0.057685912206819616,
					0.09435724620523414,
					-0.0933765290958805,
					-0.0630794829135077,
					0.017779520656579582,
					0.016035291626904074,
					0.006522022462378637,
					-0.10195019783221101,
					-0.04024312021179551,
					0.07964835506825282,
					-0.04352700021784158,
					-0.07470729169111916,
					0.03411326728487365,
					-0.024767483305054603,
					0.012970927978778612,
					0.007347436921305771,
					-0.05377314624353778,
					-0.14115560119739728,
					-0.1672327972295825,
					0.032523512006652336,
					-0.009412082898481108,
					-0.003980891704871508,
					0.06297295729562435,
					0.007223279181680692,
					-0.12289271942456166,
					-0.018717350636323207,
					-0.048573534625762534,
					-0.19844841301642924,
					-0.00005319452255404042,
					0.0166922175056824,
					0.009430039407974194,
					0.02613692380856305,
					0.012840702855915206,
					-0.10064596265131712,
					0.08294716173117708,
					-0.021637181304024592,
					0.00869979422691547,
					0.08143461041587025,
					0.004606312029218506,
					0.03844999781466759,
					-0.0005815202109168229,
					0.04059421834592448,
					-0.011893729085253048,
					0.04620997986035732,
					-0.034171417114242084,
					-0.050783183190310624,
					-0.07777905220391242,
					0.018156582579585214,
					0.07700238703223056,
					0.01740464950873706,
					0.04536046351044363,
					-0.033966715669402736,
					0.03561214095157032,
					0.017594938764035922,
					-0.022361592075798947,
					0.020262414224641558,
					0.04732878638933807,
					-0.10405063034319934,
					0.0881021368914781
				],
				[
					-0.01327298756655074,
					0.017353974051856857,
					-0.00042202533422980434,
					-0.06104362279696303,
					-0.01764952311980813,
					-0.059247543459327964,
					-0.06751212117475694,
					0.016024782938083876,
					-0.019929318200820757,
					0.012072562155315573,
					0.018182001885877458,
					0.006825418025658552,
					-0.05833457166778463,
					0.03760064159817068,
					-0.026351594921265334,
					0.005438796774563021,
					0.07782757254523985,
					0.034721239060070984,
					0.038675177676525924,
					-0.05390406371108298,
					-0.01913351062511268,
					0.019259181954477903,
					0.09528942611032985,
					0.0932827582168209,
					0.004853239083840521,
					0.05015641376615088,
					-0.013101618111394818,
					-0.07290885780275508,
					0.028972285063183636,
					-0.07311082704955334,
					-0.09720765947858334,
					0.015861272978121402,
					0.036480443678840936,
					0.029468087050853384,
					-0.07947553457377537,
					-0.04156365096958539,
					0.027000820136289804,
					0.00449168554913877,
					-0.033242757681700895,
					-0.04598147867089451,
					-0.00785650820318171,
					0.05994647972726549,
					0.004724009558529283,
					-0.05961370755909221,
					0.013227064363076586,
					0.09892821029130915,
					0.03742139114262102,
					-0.06749000896163532,
					0.028195169768928507,
					-0.03113082458934178,
					-0.04308399464973033,
					0.053622171782604484,
					0.04828669869812806,
					0.01119964759845293,
					0.03775973678714921,
					-0.07691695957212465,
					0.04913207567199988,
					0.05757573777263599,
					-0.011396242266546055,
					0.03333821714837728,
					0.008659336691035082,
					0.0007832943907290752,
					0.06622139085559145,
					-0.043237961258568484,
					-0.015646299173503138,
					-0.019745508228039943,
					-0.07134194615093441,
					-0.04822556775549714,
					0.003427019017851738,
					-0.013270537436233534,
					-0.06741913194920676,
					0.0026426672420903513,
					-0.014003400090914374,
					0.08542718485718205,
					0.015898289407329208,
					0.01576095370419211,
					0.06448947750303763,
					0.03431905726906745,
					0.10706540635756276,
					-0.004232547474973851,
					0.02012851935270979,
					-0.04042494928502545,
					0.016005653403593383,
					-0.023540333359016445,
					-0.02162709284592681,
					0.026729634461715748,
					-0.13453988610231124,
					-0.015032892125650144,
					-0.0787127155670369,
					0.00025066077515396845,
					-0.00469504571609412,
					-0.03293890530605161,
					0.0034257869757581276,
					-0.0719094172842023,
					-0.03073986317243282,
					-0.04457486212396122,
					-0.07515285495623131,
					-0.058838877340346374,
					-0.01630335142269632,
					-0.04440350322382815,
					-0.08434994041676548,
					-0.0967362870185729,
					-0.15273136708454788,
					-0.07866680284608894,
					-0.004277991410111325,
					0.04215299013665643,
					-0.03664992801505683,
					-0.07573923174372349,
					0.029951972439657814,
					-0.07333125257334969,
					0.03980185867604829,
					0.060398218358754786,
					-0.026274001006506596,
					-0.010058000490122886,
					-0.03293884945057386,
					0.029863410210822144,
					-0.03611567488703183,
					-0.048089425388994564,
					-0.020720528375024957,
					-0.0669200340656487,
					0.013346364215655736,
					-0.049427478939561106,
					-0.13912771650829153,
					-0.003766190537711302,
					-0.07707438828788062,
					-0.018428738552462534,
					-0.0636672160975357,
					-0.10445047658425839,
					-0.2675292394675682,
					-0.10980697955372472,
					-0.11081508345997101,
					-0.17322537125625986,
					-0.16035714452918004,
					-0.02811314957369692,
					0.008018363067669398,
					0.041120722786193345,
					-0.0018320322900581452,
					0.010265810921324534,
					-0.08686341821530859,
					0.07083502984970126,
					0.046993031637975344,
					-0.011714604974285501,
					0.015727323074785055,
					-0.05246340469861949,
					0.09816801656904697,
					0.07486656029022894,
					0.10420067248448737,
					0.0013384693003609734,
					0.12531121797301006,
					0.09927725642260878,
					0.0050934196984453355,
					-0.04989183796050931,
					0.04805228326153377,
					0.013480769066763442,
					-0.069694735509277,
					-0.08384478770006736,
					-0.15041024841454667,
					-0.010593609491726547,
					-0.14414684368869968,
					-0.18474760904765394,
					-0.03586536997688754,
					-0.035817123120557556,
					0.04429880529462699,
					-0.017599287451488477,
					0.06625312698587942,
					0.07593867142402913,
					-0.023036350998076768,
					-0.0651399308385768,
					-0.01218348115452266,
					-0.001359117994388813,
					-0.04243694456175691,
					0.031742072924277324,
					0.05126429268440595,
					0.10825811596079019,
					0.033824818216337926,
					0.12588584774019765,
					0.27641065922003905,
					0.17973359767911398,
					0.004096560656647821,
					0.08572914605653083,
					0.2212187813896644,
					-0.02221634844142869,
					-0.08715700591829391,
					-0.25155941426873224,
					-0.2035553833894792,
					0.03734286401414079,
					-0.11051858285431079,
					-0.13201851852958202,
					-0.049120074377452645,
					0.046606292616274476,
					-0.0017950856244372622,
					-0.020482923397130814,
					-0.02451154326282915,
					-0.08684439484729752,
					0.06039966558793933,
					0.05363351486251964,
					0.009576800186938933,
					-0.06705744395892138,
					0.031211570606447647,
					0.07303003057312285,
					0.0090263217113881,
					0.036821194501399916,
					0.16055795378925586,
					0.25235438423148027,
					0.14871535291222418,
					0.18696690328682442,
					0.27802038816568253,
					0.25474046919260873,
					0.0508645599234195,
					-0.0963270928259426,
					-0.40246404604341235,
					-0.37801158023952686,
					-0.16776402854377295,
					0.08786512148888466,
					0.11416323225381748,
					0.05321091181531789,
					-0.09880319280828781,
					0.17574741435286037,
					0.11921514216981134,
					0.0812644108139475,
					-0.06257663427839558,
					0.041955842170031926,
					-0.006474611928665201,
					0.06443441668179038,
					0.04362262300664092,
					0.06261745345121927,
					-0.03805930552838429,
					0.037113646773220016,
					0.07187871779204046,
					0.16259746977508988,
					0.14306033354255823,
					0.04383842238344712,
					0.0846713711690045,
					0.1764654240181976,
					0.18375154511016664,
					0.13071029680336688,
					-0.044161715388360674,
					-0.1629032651377402,
					-0.2684085498007975,
					-0.14885041142775454,
					-0.07280524646229343,
					0.27839523217993306,
					0.11562884824486183,
					-0.08696724322765263,
					-0.06769706503400257,
					0.027625657836788196,
					0.09811656180819195,
					0.049403307531837665,
					-0.06397557801841458,
					-0.025876986401402624,
					0.0005156597263388549,
					0.0023402147781766917,
					-0.013027425007123845,
					0.051270884071583415,
					-0.01735517762919516,
					-0.005454725947016962,
					-0.03182385387055124,
					0.16689340055607366,
					0.000626023451438773,
					-0.059501002854212594,
					-0.015142652541006583,
					-0.09092159507238888,
					0.0816724416012083,
					0.03275600609246226,
					-0.05095670835520794,
					0.028300827762714805,
					-0.046437742183005025,
					0.07924386545302428,
					-0.026924299950618034,
					0.14570663521142646,
					0.014067967934704377,
					-0.2296295221027644,
					-0.09916748891074444,
					-0.022233983810896932,
					0.07271467220276936,
					-0.05070869113035775,
					-0.04319872376855877,
					-0.007867599179150251,
					-0.05388110163666623,
					-0.0176933895819267,
					-0.11883694340710887,
					0.09187043318939087,
					0.049677186041001443,
					0.04593989216213109,
					-0.11038395586719209,
					-0.10326669698163755,
					-0.00003837768184494162,
					-0.042070246345462754,
					-0.09996599304837961,
					0.015107894636880738,
					-0.10020854631238867,
					-0.20604999753180317,
					-0.08622604899258875,
					-0.09356715902447083,
					-0.1302430051477701,
					0.16028575503353337,
					0.2684183440317737,
					-0.019467565871409097,
					-0.1864186519604086,
					-0.1300831816742636,
					-0.1846889683381021,
					-0.039870126518724416,
					-0.005725436494325848,
					-0.1430792197991265,
					0.009618660765129189,
					0.020346771889486647,
					-0.016959426335572056,
					0.03646193121675685,
					0.10598256730260466,
					0.023271032338194914,
					-0.03704651989278654,
					-0.06410376650492201,
					-0.01733953761367487,
					-0.0925699982842481,
					-0.0381971968917188,
					-0.1102386063802917,
					0.006302740388500022,
					0.12789492976097164,
					0.1617349396924051,
					0.13267755811601542,
					0.14066949893619163,
					-0.10537557222386537,
					-0.17738904178137502,
					0.08451352731183702,
					0.1690050324901425,
					-0.04516004236085608,
					-0.15200741055206266,
					0.07988804456418314,
					-0.11405952245672427,
					-0.0074692646247766425,
					-0.0370728128383033,
					-0.14325656708896525,
					-0.0827660936805206,
					-0.02596413315187225,
					0.02334853658373659,
					-0.14558279901754387,
					0.006842230661764025,
					0.07226165320028506,
					0.04004727800301401,
					0.05086924150084401,
					-0.09423131860055999,
					-0.1083089756757845,
					-0.16759698489966854,
					-0.109119214169138,
					-0.07295512054430695,
					0.06630708170221375,
					0.14028068776023053,
					-0.011395802276428902,
					-0.00445995860491557,
					-0.33123549631444416,
					-0.3076249005856409,
					-0.07860079125542169,
					0.06983691842429948,
					-0.16120519222638666,
					-0.022354501662725186,
					0.027476717144952614,
					-0.15785855585288608,
					0.03101868549253374,
					0.08389552355461458,
					-0.26303547809278877,
					-0.17460258226630823,
					-0.058711828970644774,
					0.03334714327878774,
					0.042144962792743344,
					-0.002386085091696456,
					-0.02904905690217639,
					0.024522589568176573,
					0.056464548687861826,
					-0.07289407525913516,
					-0.2106228206701361,
					-0.11755828162072039,
					-0.025304255616640698,
					-0.0018477331790037882,
					0.0540446029936533,
					-0.008963498508697544,
					-0.21171584461147588,
					-0.34592837760931416,
					-0.3137935247454319,
					-0.28209807779006485,
					-0.09492103159492336,
					-0.021076272284742754,
					-0.1475827775167394,
					-0.03967305871775438,
					-0.05683195496916838,
					-0.06714198470269382,
					-0.00021587833445250217,
					-0.08690893629046124,
					-0.08372201824707606,
					-0.09212711766008368,
					0.005561045069375616,
					0.05198677000471878,
					-0.014026967361205714,
					0.07199141413091478,
					-0.0073298191553785655,
					-0.041032263868456764,
					0.014188675262443494,
					-0.03656531584207247,
					0.014741287052585874,
					0.024693413113433527,
					0.15336608073181004,
					0.01719550621766745,
					-0.09745988739785184,
					-0.18036742605138814,
					-0.28967929334643105,
					-0.34146795466348745,
					-0.22580722891432034,
					-0.16606347146873546,
					-0.08957802976897912,
					-0.044778055749349996,
					-0.17129879927156658,
					0.06659340350392592,
					0.17211261191144359,
					-0.3045981622642035,
					-0.14332971898626695,
					-0.09060420383480451,
					-0.08466287429500576,
					-0.12638302072229857,
					-0.008833334308579067,
					-0.023121698221032813,
					-0.03602956011761777,
					-0.0846199767434655,
					0.04425198699129277,
					0.009097116733518389,
					-0.005355144066514022,
					-0.07609633577571134,
					0.023333097137889423,
					0.11864787285445148,
					0.14894361836285544,
					-0.1915955356403567,
					-0.44528319269873345,
					-0.1654738622006471,
					-0.2440441325741986,
					-0.32362695552651644,
					-0.1700135144300029,
					-0.08797891270011306,
					0.11404612423384852,
					-0.15793725879861886,
					-0.22155388187332922,
					0.01410240999458068,
					0.03437020455949137,
					-0.09597158263050949,
					-0.028994519655967544,
					-0.13013739354238102,
					-0.03537328053148765,
					-0.11953691950611542,
					-0.08181127345852868,
					0.030936187860131418,
					0.026825185325108233,
					0.0032143779601427995,
					0.07109737803158973,
					-0.025668829931358692,
					0.05441706140694455,
					-0.03970993450708165,
					0.048376302367856575,
					0.13729820038577584,
					-0.03342332224732335,
					-0.1368977863097046,
					-0.40097536194450273,
					-0.23494108944936798,
					-0.028737970917400105,
					-0.03167703380867777,
					-0.08983812723497953,
					0.07950256055152642,
					0.1843006363688076,
					0.09078033365969135,
					0.045557149123592953,
					0.129035650620348,
					0.03269924234382275,
					-0.03553333852397533,
					-0.09560819497183293,
					-0.055677018577305025,
					-0.00909315505960079,
					-0.07132741967021833,
					-0.004589385290468734,
					0.008292224916621599,
					-0.03475573230430368,
					-0.012836453268635811,
					0.051843538298293884,
					-0.030654769135416468,
					0.03423971289620751,
					-0.015290376656978364,
					-0.038142257988021296,
					-0.04973166727147113,
					-0.037505346081117,
					-0.0631062153461915,
					-0.15114441276834653,
					-0.013552823630309843,
					0.13747621755413364,
					0.022688559590671824,
					-0.005530006756629876,
					0.25152092455224623,
					0.34956297441703355,
					0.3301896563493876,
					0.2414213404088785,
					0.31393865006857113,
					0.10242318931302101,
					-0.033210777825948244,
					0.05223286370602279,
					0.0751333640886099,
					0.018878059140354113,
					0.06089574689035182,
					0.06288547838422318,
					-0.025012443126329043,
					0.02838006517626558,
					-0.02316530249608573,
					0.008850503560161678,
					0.023191010895502462,
					-0.0483867051620649,
					-0.11181188705993003,
					-0.12392400828285063,
					0.01492280686943319,
					0.05315012609206136,
					0.040240402953860326,
					0.01730506741645353,
					0.006031324934887348,
					-0.029333617723146715,
					-0.03892010627141368,
					0.09951301097748359,
					0.300385437795896,
					0.3294767335231196,
					0.09404001836310286,
					0.10239561894188226,
					0.22513764478191597,
					-0.06409901884479714,
					0.07990611561942329,
					0.08433940797814424,
					0.052044610101703075,
					0.09945527758599461,
					0.05616396434385131,
					-0.0716389728522295,
					0.020913942698746878,
					0.0069169715236745,
					0.0016589521251635796,
					-0.06855189933759048,
					0.03092101023965386,
					0.023242436521100866,
					-0.04574153392415214,
					-0.03704049465376863,
					-0.030059137108747375,
					-0.04021665433381901,
					-0.040710481752756794,
					0.016555294297105103,
					-0.0849533499389884,
					0.011739983830822268,
					0.054635347115237834,
					0.2873654182475451,
					0.42686295128938123,
					0.1110075564856582,
					-0.16214707743646167,
					0.052957006699306836,
					-0.0947537631498454,
					-0.09385782452370002,
					0.07110412887023371,
					0.07857459414758454,
					-0.02530867725634709,
					0.019000524700809995,
					0.10112807860111075,
					-0.03625227320854027,
					0.07429557657302402,
					0.06896964429120876,
					0.004514957211718077,
					-0.056784599738004746,
					0.025176882498402046,
					-0.04131321010814972,
					0.005726983145426086,
					-0.08437714533164221,
					0.003993631361742345,
					0.02181641977493054,
					-0.19380835455715606,
					-0.21257746052778304,
					-0.12074162991687566,
					0.05457078287414137,
					0.2554005892039764,
					0.39421197801316493,
					0.19418731509242088,
					0.06421613967971883,
					-0.16704992707078115,
					-0.19546032871054536,
					-0.284872871870414,
					-0.2720310813471024,
					-0.09688202601058514,
					-0.1423425344324252,
					-0.13545876539380175,
					-0.014513283734168577,
					0.0019667321032908946,
					-0.023279310525916308,
					0.051158239195958057,
					0.04134494486461803,
					-0.031015150921468664,
					-0.061392732894164824,
					-0.02241571745198634,
					0.012539939425713055,
					-0.08592988047527998,
					-0.12651099857520082,
					-0.21281833470557196,
					-0.27107044647813455,
					-0.13228723962757966,
					-0.11574703748165448,
					-0.1820587605587565,
					-0.02726005153683522,
					0.26493762241106217,
					0.3525753207809605,
					0.17902711784582934,
					-0.0952484187010236,
					-0.18428671225619447,
					-0.14789676835995166,
					-0.24268815411885977,
					-0.2664892226733823,
					-0.03241072398706519,
					-0.10352963249518964,
					-0.07540990852830448,
					0.05006725593757832,
					0.04291638712335745,
					0.02513210637909313,
					0.01954717680918442,
					-0.06933952961818941,
					0.02965939025070586,
					0.05300955332094128,
					0.005088261800063793,
					0.06301504348653574,
					0.09705008479016555,
					-0.07683917665119963,
					-0.2203663757811405,
					-0.16429211005944128,
					-0.12103441181963855,
					-0.045244202968670405,
					-0.09998925022330538,
					-0.020589511032808525,
					0.3251586516323299,
					0.29548896098437266,
					0.2879443444124506,
					-0.17902563093694543,
					0.0244032670574977,
					-0.16348537746730074,
					-0.16624537058437366,
					-0.18886991974272632,
					-0.15613866622954226,
					-0.10807056619462511,
					0.020013136360335783,
					0.006155616615832196,
					-0.020015335241268823,
					-0.05778714749099407,
					-0.026839739630766926,
					-0.050948195996312444,
					0.1009421532363246,
					-0.025457279643103733,
					0.004352310691933762,
					0.020141013618438425,
					-0.05555556007700449,
					-0.03147020680240711,
					-0.03927751601217379,
					-0.18619599142900317,
					-0.12657701705789626,
					-0.03502045238068422,
					-0.11631315879602298,
					0.0709101276012418,
					0.2833180971544354,
					0.4075822170369994,
					0.21564134465207477,
					-0.12046691436785552,
					0.12129948173929182,
					0.03147465731978298,
					0.041644593864791975,
					-0.11681024062651454,
					-0.012616774367459817,
					0.1339730799853992,
					-0.005423168592103866,
					0.027487287633036348,
					0.02156910052887169,
					0.08819061200756279,
					0.05774211527243301,
					0.020608869878308296,
					0.053306868821934326,
					0.013029823639905985,
					-0.08868691554530735,
					-0.08584977958738824,
					-0.044295697878319426,
					-0.06379192176184648,
					-0.14872701214197567,
					-0.23139739617954097,
					-0.18184350731210042,
					-0.1609293129037612,
					-0.10247778759450679,
					0.27151730861879114,
					0.23394921768201482,
					0.12308286460600223,
					0.15903109982030458,
					0.15499450888182287,
					0.1621922896473375,
					0.03459109037122675,
					-0.014986084541296449,
					-0.09113532192342598,
					-0.013539664116327873,
					-0.05928413347648289,
					0.00891371482438166,
					-0.10334094493579604,
					0.005991519252182071,
					0.03930274594134739,
					-0.059558561859835664,
					-0.050878185279739606,
					-0.07024027248764089,
					0.02316371903052305,
					0.06905353167270696,
					-0.02402032046878291,
					0.05052256991560318,
					-0.04579299302549393,
					-0.15593100948869665,
					-0.19453218861875873,
					0.011059605706976977,
					-0.0621534594480837,
					-0.05226358813514469,
					0.16036818899066263,
					0.12229726774297252,
					0.024727045438504052,
					0.00828024875912543,
					0.3037439804575519,
					0.10193442702740334,
					-0.06004032000912326,
					0.010256556173094214,
					-0.1485828774059387,
					-0.08548601103468025,
					-0.0264319918092739,
					-0.04162618296798734,
					0.0623738254531949,
					-0.01606610235963315,
					0.03196297278587722,
					-0.09971846738943493,
					-0.047779865720458274,
					0.01761926285335373,
					0.05745576158397574,
					-0.071532212471663,
					-0.0235174600961421,
					0.044191304192681066,
					-0.03823596968970119,
					0.006791842027938483,
					0.020054227093626177,
					0.021082372670569588,
					-0.0893175464802035,
					0.02334547912846864,
					0.0077817268056036,
					-0.08345940506156208,
					0.1449646913598684,
					0.09373003802282208,
					0.007370750754128701,
					-0.07455785788439677,
					-0.0031061465530736,
					-0.025960809195432713,
					-0.062076358298440125,
					0.03626470267105376,
					-0.049983686895807664,
					-0.07688679260828807,
					-0.06792974609408448,
					0.01592037493591654,
					-0.03171090885390969,
					-0.02649698747558227,
					0.038182905761695904,
					0.07201928249515846,
					-0.022703829124278367,
					-0.030279552413919057,
					-0.0725600379890961,
					0.024121262256377597,
					0.059345250331651556,
					0.0035940562868024164,
					0.00615548811832563,
					-0.018965788147613283,
					0.011964367339573238,
					0.04730490616005479,
					0.055825869273519776,
					0.030481480351237066,
					-0.0032047318811718882,
					0.04093141251092095,
					-0.0786587793189258,
					0.05505464204125599,
					-0.0055676212067370875,
					0.0330656078067338,
					-0.015753401497007435,
					-0.05987969833159963,
					0.05538928629470934,
					0.017259926643678085,
					-0.11603974606922127,
					0.006066807340397346,
					0.0708249819434909,
					0.09248909797537953,
					-0.08565002955153005
				],
				[
					0.03825275070068461,
					0.08077067660579795,
					0.04461966351983278,
					-0.04515083902609447,
					-0.009349948013637324,
					-0.04874952264496883,
					-0.0947027757969351,
					0.05445864820078115,
					0.04402093270280344,
					0.10910129969124002,
					0.002648155292934699,
					-0.007058956400742737,
					-0.012343773309024296,
					0.02659394298125625,
					-0.036836752741972845,
					-0.02735933945919256,
					-0.06899644964576664,
					0.0322764368605898,
					-0.019778464978379925,
					0.054341514967654776,
					0.02554435446766386,
					-0.045324374664917476,
					-0.027186778719573437,
					-0.06418664517787452,
					-0.033734010337027553,
					0.07885528296128361,
					0.049803877573157525,
					0.02432174394155167,
					0.03388780906014372,
					-0.021273902293390535,
					-0.027339483704155523,
					0.03799570512163402,
					-0.060394301056723575,
					-0.07299745417043663,
					0.031332481472693255,
					-0.03883693482126982,
					0.0384616090495119,
					0.01800615497009974,
					0.010732860692305618,
					0.004747639277132512,
					-0.0029350095218902785,
					0.011284905134497251,
					0.04489334070356924,
					0.0032926161053542895,
					-0.0949678340687584,
					-0.0014103809691345965,
					0.017543066123356665,
					-0.078609859451364,
					0.05007865292907433,
					0.06684167539160132,
					-0.04804676388720995,
					-0.021691438072882065,
					0.013020218348961256,
					-0.13106862327120528,
					-0.000057475351243559026,
					-0.011184564002095276,
					-0.07102809938288422,
					-0.09938167131560653,
					-0.06430966382555417,
					-0.020861319400511995,
					0.01633603777904963,
					0.05073292759614537,
					-0.037420170819119976,
					0.003938645444694204,
					-0.018369936044198867,
					0.048469618309048786,
					-0.047522004870879785,
					0.08027987040856306,
					0.04990571320903305,
					-0.15091160121731823,
					-0.035747219784175076,
					-0.02959256869304778,
					0.029355360994825504,
					-0.05212291969319049,
					-0.0267847316498615,
					0.028615278436429446,
					-0.006365443196426952,
					0.04694755212191101,
					0.0651356984691152,
					-0.1120757138598679,
					-0.005236827806437854,
					0.008968037566990147,
					-0.01148710101172842,
					-0.12282292017145009,
					0.045715161784705305,
					0.06890372024109102,
					-0.04127950341576985,
					-0.1727143786736797,
					-0.012633726998955468,
					0.05408904304581977,
					-0.01577040890654726,
					-0.050387594396723995,
					0.009892509096541153,
					-0.017396002542747264,
					0.05101168383200828,
					-0.07551345126511913,
					-0.00753710621402835,
					-0.11237082422312128,
					-0.16111203490724235,
					-0.20203735378270835,
					-0.09698994443110028,
					-0.11345139289454724,
					0.12409527627945555,
					0.23506916718877743,
					0.10121956276893285,
					0.020062638606937265,
					0.039076738811038854,
					0.02845460398082212,
					0.02303966760479296,
					0.019016186102767205,
					0.10087318090533998,
					0.035369913400385845,
					-0.08830263565973176,
					0.05626680130116774,
					0.018948062119048356,
					-0.07923030779974521,
					-0.04916529961727104,
					-0.12145295187695905,
					-0.06192624117945446,
					-0.05135647429530412,
					0.029778328227392382,
					-0.009353502154549354,
					-0.07226240743597882,
					-0.038099404653057445,
					-0.12496122576796921,
					-0.25002220879467396,
					-0.31100511324138774,
					-0.26573973079933294,
					-0.09299101045530858,
					-0.04895229314814483,
					-0.012270196127602377,
					0.18812165525434302,
					0.06339731440472876,
					0.09617061805344781,
					0.16814207662802033,
					0.10172667213070505,
					-0.05030259663776689,
					-0.04376634332990626,
					0.04407268744014325,
					-0.07650149860325076,
					-0.10978330668215291,
					0.03211273277237722,
					0.03340854339617043,
					-0.029714681263900672,
					0.05642203395803257,
					0.027009759431699445,
					-0.03427754473360225,
					-0.16427191498235202,
					-0.042299296868785634,
					-0.0015374475221966355,
					-0.021761851483550677,
					-0.06274544104707301,
					0.009642830295878651,
					-0.31507611090267146,
					-0.3853866250138314,
					-0.36468655903746616,
					-0.01768658705878957,
					0.1370669536066561,
					0.14144860186555927,
					0.28175956059983215,
					-0.007424233935394292,
					0.08487464638983123,
					0.16523835551006286,
					0.12105623583755064,
					0.028344812446405,
					0.018701827198364104,
					-0.026252959382520136,
					-0.010764631106345094,
					0.03369638765086835,
					0.08563657677178056,
					-0.033758170486587524,
					0.07911847845047627,
					-0.01869814772522705,
					0.028151181113335314,
					0.07945905606607814,
					0.036024340305191145,
					0.0568099301296638,
					0.11272064909913812,
					0.02898773981370322,
					-0.08302851609262271,
					-0.20676983432969187,
					-0.335888253588523,
					-0.6471290601942887,
					-0.47555212781030487,
					-0.2869359749944719,
					-0.08008775481769971,
					0.2602805509555088,
					0.3626775538252579,
					0.19608617722474594,
					0.01709124781078168,
					0.17869944715230082,
					0.19491865693455174,
					0.08931981006602278,
					0.058494600617633175,
					0.02100070053230667,
					-0.08550660920708952,
					0.14125457199882754,
					0.12521673653394239,
					0.01998959810489072,
					-0.07023551911143029,
					0.08498239441585696,
					0.12843927876904673,
					0.20918466222331342,
					0.04901887298708205,
					-0.18892387725756635,
					-0.02636251433453385,
					-0.07437804874736867,
					-0.10886326188429654,
					-0.24716651806472184,
					-0.36977650849300975,
					-0.2845401378669393,
					-0.16676715037362544,
					-0.13018446767170674,
					0.2186990993904322,
					0.33836509662562214,
					0.19638282410381505,
					0.01745428837521991,
					0.11963252185492347,
					0.11656434072791926,
					0.06730930767622124,
					0.03740113097779356,
					-0.02545651670315269,
					-0.007297909388275346,
					-0.029180900738673136,
					0.007056982025989106,
					-0.04927907645878116,
					0.02079801354143003,
					-0.015932513261929272,
					0.07122632998914741,
					0.07059893346743423,
					0.11420694183373506,
					-0.22790373577623202,
					-0.2747385651314899,
					0.08261543093659807,
					-0.15741550835396934,
					-0.21644963204669762,
					-0.06654823574238211,
					-0.2528976542508527,
					-0.3173074812821992,
					-0.13155131146383015,
					0.18164827579856072,
					0.40924621635362635,
					0.08390919143409883,
					-0.045009087973026274,
					-0.1985658250042468,
					-0.1351678302178333,
					-0.21971727604930333,
					-0.15402744193317044,
					-0.06826731442582865,
					0.06630494331956253,
					0.018307466754855273,
					-0.006319684773125862,
					0.006937101897257174,
					-0.011700148526162479,
					-0.08969727447562939,
					-0.0019581709125969446,
					0.023438397059423872,
					0.003016210938589019,
					-0.10207455358802318,
					-0.24471167760605975,
					-0.052819758357557915,
					-0.09230900866020511,
					-0.15896520844552284,
					-0.07158342434535654,
					-0.13527875119123833,
					-0.23244112867886296,
					-0.41600949958442734,
					-0.03542689699352091,
					0.5137052532386076,
					0.25373777396742137,
					-0.019191054649598135,
					-0.16560268366351824,
					-0.3031479570236452,
					-0.31711772377397607,
					-0.3670662253620795,
					-0.2766802457189312,
					-0.05862112698165853,
					0.034126978779019254,
					-0.04141175072656045,
					0.003385166363120545,
					-0.03822719121468662,
					0.05407550496126039,
					-0.04438924191166182,
					0.01746550568807546,
					0.10909972401261103,
					-0.02125068753511487,
					-0.18472465317385403,
					-0.13745674773748284,
					-0.17661982274298774,
					0.02334856023485497,
					0.052537051444857465,
					-0.0752165579133382,
					-0.08590938303308643,
					-0.4848708690424183,
					-0.36384928256197513,
					0.10428093884572491,
					0.32364208231504904,
					0.26656527331851404,
					-0.010269796063421467,
					-0.158099826997653,
					-0.2475254457323795,
					-0.435693176341178,
					-0.32707573650359867,
					-0.3102783811116435,
					-0.20530423618564148,
					0.00042054519894502455,
					0.011699964680140533,
					0.013902682541342628,
					-0.029298219274615296,
					0.04619437370523263,
					0.08553730052592567,
					0.08865499711450553,
					-0.0021508931852647116,
					0.03262620742047682,
					-0.1221660681365591,
					-0.09186439244025554,
					-0.1526229025124921,
					0.24541118981560572,
					-0.016318366122450603,
					-0.1767393405357522,
					-0.12554780327518167,
					-0.40830945201214863,
					-0.06107534587098027,
					0.1597018332746164,
					0.19980142339459886,
					0.12711476949731146,
					0.12482914121127668,
					-0.3881164711841601,
					-0.46330123459333244,
					-0.32514832515555325,
					-0.22563499765228573,
					-0.2676104075703053,
					-0.12933342890471194,
					0.009397545016340277,
					-0.023504578962621578,
					0.024859815470147754,
					-0.02970032881262485,
					0.015335411759710434,
					0.015947033288431264,
					0.005972746246594173,
					-0.007775977636938987,
					0.09391966710841702,
					-0.04036299470157765,
					0.02223984566110429,
					-0.13801242665089028,
					-0.01834153724475652,
					0.003519404335793446,
					-0.27585141348753695,
					-0.1632518855783962,
					-0.19584797522396094,
					-0.07092987730227782,
					0.0038392676778209824,
					0.23003520577612585,
					0.07766688965129226,
					-0.08414770997386797,
					-0.41146833841393354,
					-0.3333008482427688,
					-0.2859775131746602,
					-0.14590687186224585,
					-0.09553465712737687,
					-0.056485476101969655,
					-0.03754202547649995,
					-0.11899290192864274,
					0.0033669612488099374,
					0.08662784884240914,
					0.07775979270670146,
					-0.09988050907882588,
					-0.0038059805511216713,
					0.08853295053851185,
					0.11559153006993172,
					-0.05264818312500254,
					0.06567194712643154,
					0.01850605676607283,
					-0.03122572897264208,
					0.010257526233829443,
					-0.17354293610845622,
					-0.017006372516603255,
					-0.19149680987735848,
					-0.08108890197433172,
					-0.05495625723741222,
					0.14342108819257135,
					0.2887446949769375,
					0.06459869197965497,
					-0.1965703423250011,
					-0.08198758434573747,
					0.010809340203092826,
					0.001348429021670343,
					0.020260983157532615,
					0.1271042858080448,
					-0.017713841213942445,
					0.0230921367772344,
					0.05178781287438424,
					0.046037613717337174,
					0.03179090745612545,
					-0.004029761479849896,
					0.03159812705859651,
					0.10986582398229025,
					0.13672084594604628,
					-0.12654769881818193,
					0.11245065655805728,
					0.1315882784499117,
					0.07056778033434953,
					0.02996835447924984,
					-0.05112186126783117,
					-0.22988529119761167,
					-0.08960125116342287,
					-0.0654505321918587,
					0.035692233476143115,
					0.22886000411796592,
					0.06768575916587297,
					0.10960207391353276,
					0.2705527980127165,
					0.1589185937469721,
					0.13528310379162864,
					0.09499746606407541,
					0.048776551874626775,
					0.10067316406275863,
					-0.047727857901720364,
					-0.014851363714309401,
					0.02202470068068441,
					0.08411832358567009,
					0.05164710997529776,
					0.00878724479613531,
					-0.07095321988501911,
					0.04801937227831246,
					0.1367098358885956,
					0.0064202560787334885,
					0.28033045549329555,
					0.1583744452165539,
					0.1877550789720279,
					0.22665775633222446,
					0.12613786942959934,
					0.005065777056892955,
					0.09173795604661068,
					0.1447128080358841,
					0.17236824390103767,
					0.13854838993368934,
					0.12937604271003475,
					0.003941313450684018,
					0.11516734681954606,
					0.2785518710759362,
					0.24108522572286667,
					0.020715452376837237,
					0.03521645615984291,
					0.03931403964065459,
					-0.05226691250875087,
					-0.023090510323818966,
					-0.015040285168046244,
					0.08804315082599863,
					0.03263986672922377,
					-0.03773524349605243,
					0.007789136140466187,
					0.0071439398559116985,
					-0.019201506734150182,
					0.02414581528158674,
					0.17946563991485387,
					0.21964590536104653,
					0.27327006238145435,
					0.29253037194541137,
					0.1106770238574171,
					0.13149630807035495,
					0.27886953488550575,
					0.3254051143967014,
					0.12671914271543366,
					0.19180118700457793,
					0.2865476720841342,
					0.2168513550640203,
					0.2973630692556442,
					0.2319259032492719,
					0.1538446149636904,
					0.04890901072211738,
					0.028416679938813125,
					0.06457786771107246,
					0.005306150380476526,
					0.010610896423419816,
					0.012053457981699475,
					0.0012489080026772982,
					0.0055955903858907075,
					-0.0539519945149713,
					-0.004131249884152146,
					0.08938411771321028,
					0.04490693349816554,
					-0.06009918622694372,
					-0.018208355348168278,
					-0.2081988223897247,
					-0.07234104627129818,
					-0.01452395715937257,
					0.13940651102221124,
					0.002899711439932668,
					-0.08820390568302233,
					0.11804150822197042,
					-0.17508092319260082,
					0.006675333784127713,
					0.05763501353522906,
					0.1330759511673062,
					-0.0841063334933464,
					0.10779528354793744,
					0.03561415457862147,
					0.06861682000448037,
					0.158970960056252,
					0.06800469791884252,
					-0.019214212262973134,
					0.026698190833092997,
					0.01004852103441698,
					0.013020815799950031,
					0.018378299915912184,
					0.08660140266292653,
					0.07333743267806635,
					-0.07857330436681322,
					-0.036495654162254566,
					-0.21362578335108515,
					-0.18503406085936933,
					-0.31000616999524916,
					-0.16116794445790553,
					-0.023969145536744757,
					0.07901808922469356,
					0.007942928678326184,
					0.013682694870886625,
					-0.21145587983838593,
					-0.4322244810354499,
					-0.19566710517753486,
					-0.15624585508495095,
					-0.14976199959404007,
					-0.23333223949246848,
					-0.11174910727067236,
					-0.11299287685365375,
					-0.17064110784462652,
					-0.04790827843473643,
					0.02786348671961236,
					0.012492894350547078,
					0.0037607456540710376,
					0.009466915479477136,
					0.05400408492813012,
					-0.012134861134757301,
					-0.044379550626504505,
					-0.039813020541285334,
					-0.1106601187734841,
					-0.11157029748767933,
					-0.13115515304904846,
					-0.14842119853766322,
					-0.29051933228960014,
					-0.09436527041490657,
					0.022317365793565257,
					0.040390371459946575,
					-0.03202918566826162,
					0.009622420950132424,
					-0.2844181863957746,
					-0.2567108338882634,
					-0.004748731629957723,
					-0.08698804665724758,
					-0.28019582208531213,
					-0.1665207358258604,
					-0.07681511842217686,
					-0.05768251272004286,
					-0.11649575674264899,
					0.027642003076888792,
					0.0763110226574658,
					-0.004024000789759636,
					0.027015607893438542,
					0.07743892334451308,
					-0.02408457436903591,
					0.01575364953228,
					-0.004092456368667378,
					0.0357773890003069,
					-0.10721842217892982,
					-0.07698275410476096,
					-0.11889599364018315,
					-0.13976622708147338,
					-0.06700390392959384,
					-0.12063901335468886,
					0.08461474572383869,
					0.15444633352737813,
					0.272841291094727,
					-0.10545030160870324,
					-0.15891474217704255,
					-0.08286932889749349,
					0.19281627307569543,
					-0.11891932235398626,
					-0.07372555425128392,
					-0.0980234024497952,
					0.04883564250950164,
					0.054133147655004016,
					0.010912225139948986,
					0.049738634609525934,
					0.06037669964317356,
					-0.017594018236026927,
					-0.022344343730162107,
					0.07451914528493835,
					-0.0007198852774716705,
					0.03914528178905826,
					-0.004769201144552121,
					-0.10875224888446722,
					-0.0049202695556657345,
					0.014615953114848245,
					-0.10358492264371025,
					-0.09653992374828871,
					-0.12155068325639198,
					-0.12062684607699722,
					-0.07583444472068311,
					0.22249575562522997,
					0.15913872897459186,
					0.11662663576887432,
					-0.10625141641163173,
					-0.010827986278397837,
					0.059845503524062205,
					-0.11400563771898814,
					-0.20079812415970072,
					-0.08299784073662977,
					0.011760047310788304,
					0.02516324612211473,
					0.038097792700226195,
					0.01891801572499618,
					-0.04121648004819216,
					0.006772748123607032,
					0.08256921271753848,
					-0.008087030966762969,
					-0.07602123156177916,
					0.04058663070624618,
					0.05624871861744895,
					-0.10919558489342615,
					0.021252250708174297,
					-0.10726557762583529,
					-0.08300312456169792,
					-0.012580135284299248,
					0.12652993327040069,
					-0.1068839701249644,
					-0.18265221004133472,
					0.07863129041743248,
					-0.08423757703483233,
					0.12780602268844815,
					0.03922938371168817,
					-0.03615337373675347,
					0.17238132628235475,
					-0.19740811754361745,
					-0.17010205882111426,
					-0.14980165819476604,
					-0.13398934561752238,
					0.059182058224121176,
					0.06479980473956612,
					0.06447590764351258,
					0.0536946438582198,
					-0.0027422925352883097,
					-0.07850150076661107,
					0.020047489592840993,
					-0.032673023854628364,
					-0.026019964945774892,
					0.1192093463842266,
					0.017828379293302745,
					-0.0600626561214636,
					0.0357512452223048,
					-0.11810602998821886,
					-0.027346020192181946,
					0.02200013942613906,
					-0.06552588243171198,
					0.17545912666194155,
					0.18502507507877658,
					0.049049272530830794,
					-0.08928191867547694,
					-0.06333274348404191,
					0.022849177167859946,
					0.1456746248736779,
					0.09641636605460682,
					-0.06459404404811052,
					-0.13758838749650262,
					0.001608695251854262,
					-0.025515177684762507,
					-0.004156376388053235,
					-0.000848343088920322,
					-0.008126092463956446,
					0.011995342127381039,
					0.0003056521455734052,
					0.03466146711630919,
					0.028954850037047414,
					-0.0028421659805278015,
					0.042797229308646184,
					0.0031459089610978174,
					-0.06705811903305957,
					-0.059287009267415175,
					-0.1535368934075315,
					-0.19523364331289284,
					-0.01890014738778129,
					-0.17326435002290108,
					-0.11743881642674313,
					0.045601003278234055,
					0.04088642963862898,
					0.0655084485352685,
					-0.08103057719732465,
					0.11564743261955632,
					0.02395887679024084,
					0.08390233986757634,
					-0.07622186069473916,
					-0.1291159732555694,
					-0.05054723097499796,
					0.011789877695306398,
					-0.03682941220069617,
					-0.06304886530224516,
					0.1082319818590543,
					0.004003532008610418,
					-0.00646085279511861,
					-0.06573253689083479,
					-0.043494094157086695,
					-0.026516228672845983,
					0.010978460013047671,
					-0.004654071284699855,
					-0.06546327705303395,
					-0.030493735769764364,
					-0.056198108169414444,
					-0.023461255778990664,
					-0.11507765642224384,
					-0.06627279811209223,
					-0.21864706515268315,
					-0.1407882777200355,
					-0.09379734401963236,
					-0.27650921355663116,
					-0.21126443240187603,
					-0.10205706128030308,
					-0.07338869425485513,
					0.011100389732529971,
					-0.0429229466394282,
					-0.32933059282534916,
					-0.1754679208850332,
					0.012741915573893316,
					0.027380304898809472,
					0.10189797417870963,
					-0.03604872067589359,
					-0.092308983614744,
					-0.022160070623857348,
					-0.004515435616463163,
					0.09804423234113249,
					0.03656353844764801,
					-0.0273226784391447,
					-0.10633338306120044,
					-0.14493509065778054,
					-0.05599177387773099,
					-0.04766835674027642,
					-0.0321829503291013,
					-0.11520084892423943,
					-0.13299116503495234,
					-0.10574647216867107,
					-0.01683468654677401,
					-0.19837610813363485,
					-0.16662930531306117,
					-0.0985329105711094,
					-0.10877164366410906,
					-0.16614930891392513,
					-0.09479746933261238,
					-0.1414167904863657,
					-0.10430071694276406,
					-0.13336923642189674,
					-0.09191175851359346,
					-0.012478337967671291,
					0.020984241897873672,
					0.1177367260812162,
					0.006870724617538673,
					-0.03234695853179353,
					0.05210757298824038,
					-0.032521926968826845,
					0.01131027398884962,
					-0.022198353971839398,
					0.03260253021868072,
					0.06624798380944312,
					-0.024363803332974845,
					0.0012732349546303414,
					-0.05140609699362152,
					-0.05219797086652138,
					-0.01690388269362891,
					0.05559274207327512,
					-0.029300803044110982,
					0.051380124358426454,
					0.03474250409799954,
					-0.05144746249831516,
					0.030397922129068534,
					-0.005682919604132235,
					-0.005210332545186625,
					-0.0382861068312765,
					0.060195629199811335,
					-0.06276030559937681,
					0.04735543221135825,
					0.09458874100931422,
					0.09341028381643685,
					0.00829712092532312,
					0.05549290517888871,
					0.044168585542638576,
					0.014577381854101217
				],
				[
					0.07492665596066264,
					-0.02911437453017817,
					0.004165995701748748,
					-0.08365473066644023,
					-0.06347226941308647,
					0.07081100577875374,
					0.023120293760082795,
					0.022556238708910367,
					0.01788318757160308,
					0.02196447431700613,
					0.03447806405080141,
					0.03450916883791666,
					0.12469405385734696,
					0.030245788371808063,
					-0.05662720810306821,
					0.07372875179921147,
					0.0860143247579682,
					-0.06605354376602543,
					-0.046058282846234276,
					-0.09745467985386315,
					0.058763559725107634,
					-0.03417455269627161,
					0.03524082645137645,
					-0.04497848682990294,
					0.05564732883098172,
					0.010828340069758982,
					-0.07359751305759704,
					-0.009424766532673025,
					-0.045327203247414,
					0.08604594821037594,
					0.019309650687151677,
					0.038126612797879746,
					0.05156635422254931,
					0.08785979349249246,
					0.03709677552940675,
					-0.019197718363275624,
					0.0684722307042773,
					0.022261883977458454,
					0.005032693175964233,
					0.11807888910002731,
					-0.10530469093893577,
					0.18962205019864783,
					-0.02743820300274371,
					0.01052318660641862,
					0.046677026848778724,
					0.14512702137985461,
					0.05764578980960616,
					0.049771603382401164,
					0.020078782185298856,
					-0.06308037356853827,
					-0.04355786833904746,
					-0.08744025675612581,
					-0.024481117240825072,
					-0.027274095655393293,
					0.02700181020183109,
					-0.026946422079488223,
					-0.0004062294230117623,
					0.006214147054168625,
					0.05944483139935552,
					-0.0474022634115224,
					-0.0017131221548795377,
					-0.0180390413427884,
					-0.017931053365674143,
					-0.1035911279506442,
					0.11451956805759549,
					0.023642689335685307,
					-0.01967836689956301,
					-0.05644530650271604,
					0.022990903494656947,
					0.06698347467761855,
					-0.041498219371154776,
					-0.050608084696882764,
					-0.08379494704772496,
					-0.010407182902428211,
					-0.12451475627435904,
					0.05445839779160513,
					0.006393978954169047,
					0.018801061712981574,
					0.018203151572752783,
					0.10812964807667827,
					0.05901429556916584,
					-0.020127591215826957,
					-0.05254301417728461,
					0.05534973577885839,
					-0.003748240576629389,
					0.028138354216604957,
					-0.09178171754320948,
					0.11423804137978491,
					-0.01882856824834505,
					-0.06401821833344153,
					-0.10738576209547879,
					-0.006305082284359471,
					-0.032629822600682395,
					-0.015902668654878292,
					-0.007972964643652018,
					0.013395124605503147,
					-0.0716704828986466,
					0.050284384948866424,
					0.07479139422723194,
					0.00408535242067576,
					-0.02523535821064867,
					-0.13200496332810097,
					-0.1540261264877733,
					-0.03723324179104633,
					-0.05143856347347037,
					-0.10271633940824977,
					0.014257965102050508,
					-0.026180757519937106,
					-0.0004646436059686713,
					0.11144054394527432,
					0.08919547200080671,
					0.09309772524855747,
					0.017973547105503238,
					-0.007715916944348231,
					0.006273650264190153,
					0.0358817725993292,
					-0.022113905716375785,
					-0.05945923966888687,
					-0.03845109453553679,
					-0.018131093575073608,
					-0.009655603739946669,
					0.038069341421881106,
					-0.0924096812742469,
					-0.03827716095186393,
					0.06760876960527736,
					0.0651256976529679,
					-0.08501537114698073,
					-0.22889007694096133,
					-0.24614509933135925,
					-0.020924249440396815,
					-0.1285267227943302,
					-0.07263773486890765,
					-0.009834333941330917,
					-0.07347212389274005,
					-0.005550228495660503,
					-0.015732190828925175,
					-0.048749091960672536,
					-0.021465990269560965,
					0.032494896519845065,
					-0.0671515845176841,
					-0.06225549753549164,
					-0.007459750397268255,
					-0.049772868782613944,
					-0.07990023940209026,
					-0.006212379286421217,
					0.016583696812517257,
					-0.0029900402695238657,
					-0.001433689794433055,
					-0.00893503523352326,
					-0.003046353676132248,
					-0.09438392789572991,
					-0.032039082525028816,
					0.03202527319595428,
					0.09677674747991007,
					-0.0059794755845864285,
					-0.07236324910650276,
					-0.25835225425029407,
					-0.12732389921073806,
					-0.07799837531428332,
					-0.051159348945453806,
					-0.059869685966098575,
					-0.12739334691097468,
					0.004756615361501113,
					-0.048538754988951334,
					-0.022959526406831167,
					0.07001218782895195,
					-0.018019409133687755,
					0.040342205432813937,
					0.01776644626478909,
					-0.058705006075640394,
					0.06824592389959025,
					-0.07705364662273145,
					0.09475456267360137,
					-0.053547958017558725,
					-0.10319059540236684,
					-0.18366847712348072,
					-0.1559306542213142,
					-0.1322608880613481,
					0.020534616023991686,
					0.14675684853371382,
					0.14624396750567661,
					0.07587690982110168,
					0.027384664625562626,
					0.00611604317567471,
					0.07819717059462164,
					-0.005662751201497882,
					-0.11270572444657645,
					-0.2754364538973055,
					-0.29934046099226735,
					-0.1266480477731378,
					-0.1776020032627448,
					-0.0715278548291591,
					-0.09865780308192104,
					-0.0036164587678524113,
					0.004801777550683739,
					0.007811777424494417,
					-0.03758151221506168,
					-0.06752804616035027,
					-0.03170293263141387,
					-0.006039506584536105,
					-0.012220140243507914,
					-0.23278251833798094,
					-0.1772468558783708,
					-0.22177409375316579,
					-0.23397463333735855,
					0.003506298585602153,
					0.15697601668465008,
					0.23160733040431022,
					0.2519956432570806,
					0.2621434196793099,
					-0.03274658902576431,
					0.05318417224692884,
					0.014392883321321043,
					0.04211528192177999,
					0.036552985027620014,
					-0.14944593715716495,
					-0.27676286929492694,
					-0.30254495950476556,
					-0.317873538727673,
					-0.17544085166365134,
					-0.07741835080831563,
					-0.05186054347238162,
					0.006606170498929244,
					0.03236604980975786,
					0.002880864833056407,
					0.0411102845212273,
					-0.06616618943047452,
					0.002822483999818546,
					-0.027489334751430627,
					-0.21880337167138073,
					-0.14161754426279563,
					-0.18620999374069253,
					-0.10244135322263985,
					0.21508705062199604,
					0.19026293869961375,
					0.17698248730561575,
					0.2337393591555385,
					0.16649232696518632,
					0.2110653715221076,
					0.10748388449778835,
					0.17939259813249012,
					0.31746420576830603,
					0.3247171359589041,
					0.23328429564214256,
					-0.034620453566969966,
					-0.3078589078027057,
					-0.2343846260918399,
					-0.17845282450105682,
					-0.12715986018227848,
					-0.0634357293634469,
					-0.038053383395270764,
					0.009309489117990333,
					-0.03747482361300079,
					0.06250472610774307,
					0.033786168378021106,
					0.07777084975258118,
					-0.09375620573623483,
					-0.07983146384942193,
					0.09212871224271116,
					-0.14548209778824867,
					0.09211810892474091,
					0.028672862653917774,
					0.09957929972327034,
					0.08529093579179098,
					0.16104484477396763,
					0.16435478331975445,
					0.16948877938307086,
					0.10918522102586997,
					0.1878699154101619,
					0.21753046626674874,
					0.4360748371099438,
					0.27740298474739256,
					0.1618701701342699,
					-0.2144439479561408,
					-0.21822900424749844,
					-0.31735363547150447,
					-0.11750553658336838,
					-0.05030891806976822,
					-0.002779644602956275,
					0.006426494263412305,
					0.018383175777316896,
					-0.026891483908782664,
					0.05124708426505728,
					-0.07755911456530627,
					0.031503872036082334,
					0.09305715737016457,
					0.13912042471557773,
					0.0391019913939324,
					0.03246403100237662,
					-0.0721022170038116,
					-0.09874887568718015,
					0.13320263203545366,
					-0.10374352596581717,
					0.03569610814293402,
					0.1062869362504967,
					-0.01194225828071233,
					0.13028188601030397,
					-0.04303525967300545,
					0.09322162268963821,
					0.2295706596798872,
					0.10443517433875127,
					-0.1675460552854443,
					-0.001193744986484695,
					-0.08168863020559045,
					-0.20149205418898797,
					-0.0031904071828341572,
					-0.043419007578436086,
					0.0018446371191326253,
					0.07257548631819477,
					0.06202147999774288,
					0.007231809225429311,
					0.03910118302101009,
					-0.0004472577501265164,
					0.11111552243625793,
					-0.03304758603030468,
					0.0945174461917774,
					-0.007648662896061195,
					-0.0808733754943838,
					-0.003104148955719772,
					-0.1949123007976868,
					0.03233045389898396,
					0.0987943748202955,
					-0.13303076154912918,
					0.09499890407116122,
					0.11150045065158203,
					0.06747765192730854,
					-0.06514384611024449,
					0.27507795349795244,
					0.36433666970438694,
					0.08360123129609413,
					0.030906617699947316,
					-0.1610120651738159,
					-0.030588500402759202,
					-0.09645150743466016,
					0.13571116493830956,
					0.03897376780570711,
					0.014584792417722647,
					0.006374415521865122,
					-0.04294442888009135,
					-0.05769520903195466,
					0.14156571459001183,
					0.07327833419225044,
					0.050268875235551375,
					0.07280945716970408,
					0.015983831796139596,
					-0.09888050969745224,
					-0.04739037020220277,
					-0.22468444444648125,
					-0.14641670761578368,
					-0.22510410892044172,
					-0.020795772505555865,
					-0.059177200999178586,
					0.05735826281776277,
					-0.014735307284066333,
					0.013601403028790957,
					0.2643877346363284,
					0.3467159334094828,
					0.26828155660090724,
					0.18579068850014566,
					0.09888425414232856,
					-0.09049474596411436,
					-0.03024126353131154,
					0.034724685830169175,
					-0.09620344604727919,
					-0.1152460517422971,
					-0.07328611886775308,
					0.028430981681710703,
					-0.030952214172611726,
					0.09239958295348132,
					0.11585319246901092,
					-0.004837659844099391,
					0.08639390714705832,
					0.10507469611319806,
					0.08775378999892365,
					0.07070306454147834,
					-0.046978377424036995,
					-0.25377867931398923,
					-0.40010116171111487,
					-0.15828045112142206,
					-0.20980264830881473,
					-0.09098187617134057,
					-0.013276743921821425,
					0.07562713248630434,
					0.12295431920419601,
					0.19399726518087404,
					0.2375853751367348,
					0.18528491111323836,
					-0.12105197047090911,
					-0.05471256501398439,
					0.02315570692363801,
					0.026104810005954035,
					-0.006476130247594316,
					0.031068454874343458,
					-0.05402967689966917,
					-0.1115762252388711,
					-0.049740210579079,
					0.10701414088315851,
					0.08565103955363261,
					-0.1094859108763358,
					0.062342415699291186,
					0.1464919190357257,
					0.12751426260899884,
					0.054658039367952146,
					-0.0054371646416183795,
					-0.05483741620044644,
					-0.11005132545122483,
					-0.16406505051608095,
					-0.113048175344927,
					-0.12811623167259328,
					0.017594209694559656,
					0.28120527233082643,
					0.2610370369765327,
					0.3892238711040626,
					-0.02514481453597998,
					-0.0003100765846450154,
					-0.2589861675875248,
					0.020177262535032308,
					0.06081046447339783,
					0.017852317073345846,
					0.03585194725364783,
					0.056220020667636816,
					-0.07126342610011986,
					-0.018297921408901525,
					-0.050889170491067275,
					-0.09272955197434939,
					0.1257127419722128,
					0.056651752350442126,
					0.014988632683209784,
					0.383480531829228,
					0.33322151567719427,
					0.017611496080232405,
					-0.2631445348878898,
					-0.23818767303525853,
					-0.23236873487113865,
					-0.29029110439765177,
					-0.2010073927274837,
					-0.19512039012355936,
					-0.18198270856182505,
					0.1948991515474977,
					0.1226546757721145,
					0.1432603701269823,
					-0.2865741834988693,
					-0.264030019551355,
					-0.22553885098309093,
					0.028054065685431943,
					-0.10219474790987773,
					-0.008103806907733262,
					0.022240510040443945,
					0.04691890724551534,
					-0.02976801321243611,
					-0.053200806899660905,
					-0.07841687707602081,
					-0.009982986396288359,
					0.005698897682434976,
					0.0403725311480189,
					0.02353982140333671,
					0.1762255333173429,
					0.10068744538731135,
					0.053944956936357154,
					-0.16985437030068276,
					-0.18791840851126512,
					-0.28388688677889024,
					-0.2924146171778877,
					-0.34398293619318904,
					-0.18865148990466798,
					0.05512635208766084,
					0.07777037697787877,
					-0.3362835903632708,
					-0.009598529406086968,
					-0.27642853745215995,
					-0.0856463454724552,
					-0.22611256758242465,
					-0.0073480374827081755,
					0.07827029393958652,
					0.05224469505629389,
					0.01491966352757177,
					-0.0030251600499752013,
					0.013530572133607179,
					-0.16266637158118,
					-0.03925058530816999,
					-0.10237186717706322,
					-0.02693596249388742,
					0.08323963653672932,
					0.1353206335240473,
					0.11907652219682928,
					0.11965733329335469,
					0.16312474849134664,
					-0.02729790880970133,
					0.09593363989084075,
					-0.013647287657292907,
					-0.056465247969979544,
					-0.1464589609576957,
					0.05286773731803422,
					0.11043561120882743,
					-0.05262501621086873,
					-0.13159349813969895,
					-0.17259639671223523,
					-0.046771963794662766,
					-0.02638288968436062,
					0.023725599267078613,
					-0.083361705631551,
					0.0729965497980719,
					-0.02554806033168782,
					0.005271861275018231,
					0.02612170138645608,
					0.0939019662378266,
					-0.0642477601011784,
					-0.1144699945409791,
					-0.1617540303622233,
					-0.1598045966766756,
					0.0489541435664385,
					0.08010308549797221,
					0.2343553290304261,
					0.23946719378369746,
					0.22991089701870948,
					0.050968395340778114,
					-0.004959929490327533,
					0.03567413552085688,
					-0.08337747461608826,
					-0.18543371591124957,
					-0.1640795810194011,
					0.10501882109031048,
					0.17283149641054674,
					-0.03527897406171196,
					0.029836402395499482,
					0.1563624362802903,
					0.1272326665378805,
					-0.08145697080268859,
					0.06990316339964248,
					0.0748489728672028,
					-0.07457311503923758,
					0.017129694777820257,
					0.06863897591589681,
					0.040584182498206015,
					-0.03387956611927849,
					0.10201058192631612,
					0.046029346473882266,
					-0.09714065126608595,
					0.0558507930852893,
					-0.012686133832967544,
					0.21510006646096771,
					0.16979836095621964,
					0.1603228461800286,
					0.0755216612371458,
					-0.014001119945365065,
					-0.13718574618824275,
					-0.1951010463958647,
					-0.2617939549264514,
					-0.034849170780246394,
					0.15287544601438,
					0.26524100494004216,
					0.14631936297925666,
					0.0809579355021357,
					0.0373174693236597,
					-0.021478389822604544,
					0.026196173567002594,
					-0.025228892497756433,
					0.01454145149321375,
					0.0035918847636834503,
					-0.010011641526089193,
					0.09437337844859812,
					0.0380227670822281,
					0.052073992718760745,
					0.039344185308886774,
					0.18378901296528263,
					0.1690151938629186,
					-0.054059181230167154,
					-0.10714246534264571,
					-0.05085933903578429,
					0.046776388119163445,
					-0.06616427647869756,
					0.03200942245217993,
					-0.1799391067307721,
					-0.2261842519869041,
					-0.11635135007000888,
					-0.28046146453700604,
					0.13792327375064453,
					0.2771676024237947,
					0.07669112702034979,
					-0.025950673362407525,
					-0.10687956362535193,
					-0.11012694900803179,
					0.04196488496301904,
					-0.058822381918984944,
					0.12212533266925966,
					0.07428273666352636,
					0.1020554296141841,
					-0.00820212986778078,
					-0.014293062767142378,
					0.00795937445087981,
					0.020045661037750632,
					-0.0239222420999617,
					0.17550535906039744,
					0.23809616118658647,
					0.11072798512446659,
					-0.01169266475295812,
					-0.0001062455890756497,
					-0.059522049169297146,
					-0.20870461426361464,
					-0.19346750460223958,
					-0.2109511794603463,
					-0.1334533771518835,
					-0.12441157362381257,
